digraph Tree {
node [shape=box, style="filled", color="black", fontname="helvetica"] ;
edge [fontname="helvetica"] ;
0 [label="RM <= 6.978\nsquared_error = 73.855\nsamples = 379\nvalue = 22.137", fillcolor="#f5cfb4"] ;
1 [label="LSTAT <= 14.4\nsquared_error = 38.186\nsamples = 330\nvalue = 19.888", fillcolor="#f6d5bd"] ;
0 -> 1 [labeldistance=2.5, labelangle=45, headlabel="True"] ;
2 [label="DIS <= 1.373\nsquared_error = 23.887\nsamples = 194\nvalue = 23.343", fillcolor="#f4ccae"] ;
1 -> 2 ;
3 [label="LSTAT <= 10.83\nsquared_error = 108.536\nsamples = 3\nvalue = 42.633", fillcolor="#e99659"] ;
2 -> 3 ;
4 [label="squared_error = 0.0\nsamples = 2\nvalue = 50.0", fillcolor="#e58139"] ;
3 -> 4 ;
5 [label="squared_error = -0.0\nsamples = 1\nvalue = 27.9", fillcolor="#f2bf9a"] ;
3 -> 5 ;
6 [label="RM <= 6.543\nsquared_error = 16.621\nsamples = 191\nvalue = 23.04", fillcolor="#f5ccb0"] ;
2 -> 6 ;
7 [label="TAX <= 222.5\nsquared_error = 8.548\nsamples = 148\nvalue = 21.676", fillcolor="#f5d0b6"] ;
6 -> 7 ;
8 [label="DIS <= 2.793\nsquared_error = 13.262\nsamples = 4\nvalue = 30.225", fillcolor="#f0b890"] ;
7 -> 8 ;
9 [label="squared_error = 0.0\nsamples = 1\nvalue = 36.2", fillcolor="#eda876"] ;
8 -> 9 ;
10 [label="LSTAT <= 13.565\nsquared_error = 1.816\nsamples = 3\nvalue = 28.233", fillcolor="#f2be99"] ;
8 -> 10 ;
11 [label="LSTAT <= 9.18\nsquared_error = 0.203\nsamples = 2\nvalue = 29.15", fillcolor="#f1bb95"] ;
10 -> 11 ;
12 [label="squared_error = 0.0\nsamples = 1\nvalue = 28.7", fillcolor="#f1bd97"] ;
11 -> 12 ;
13 [label="squared_error = 0.0\nsamples = 1\nvalue = 29.6", fillcolor="#f1ba93"] ;
11 -> 13 ;
14 [label="squared_error = 0.0\nsamples = 1\nvalue = 26.4", fillcolor="#f3c3a1"] ;
10 -> 14 ;
15 [label="LSTAT <= 7.76\nsquared_error = 6.331\nsamples = 144\nvalue = 21.439", fillcolor="#f6d1b7"] ;
7 -> 15 ;
16 [label="DIS <= 4.464\nsquared_error = 2.911\nsamples = 35\nvalue = 23.594", fillcolor="#f4cbad"] ;
15 -> 16 ;
17 [label="INDUS <= 6.685\nsquared_error = 4.551\nsamples = 7\nvalue = 25.343", fillcolor="#f3c6a5"] ;
16 -> 17 ;
18 [label="squared_error = 0.0\nsamples = 1\nvalue = 29.1", fillcolor="#f1bc95"] ;
17 -> 18 ;
19 [label="TAX <= 532.0\nsquared_error = 2.565\nsamples = 6\nvalue = 24.717", fillcolor="#f4c8a8"] ;
17 -> 19 ;
20 [label="DIS <= 3.153\nsquared_error = 1.218\nsamples = 5\nvalue = 24.16", fillcolor="#f4c9ab"] ;
19 -> 20 ;
21 [label="squared_error = 0.0\nsamples = 1\nvalue = 22.1", fillcolor="#f5cfb4"] ;
20 -> 21 ;
22 [label="RM <= 6.256\nsquared_error = 0.197\nsamples = 4\nvalue = 24.675", fillcolor="#f4c8a8"] ;
20 -> 22 ;
23 [label="AGE <= 22.6\nsquared_error = 0.01\nsamples = 2\nvalue = 25.1", fillcolor="#f3c7a7"] ;
22 -> 23 ;
24 [label="squared_error = 0.0\nsamples = 1\nvalue = 25.2", fillcolor="#f3c6a6"] ;
23 -> 24 ;
25 [label="squared_error = -0.0\nsamples = 1\nvalue = 25.0", fillcolor="#f3c7a7"] ;
23 -> 25 ;
26 [label="RM <= 6.405\nsquared_error = 0.022\nsamples = 2\nvalue = 24.25", fillcolor="#f4c9aa"] ;
22 -> 26 ;
27 [label="squared_error = 0.0\nsamples = 1\nvalue = 24.1", fillcolor="#f4caab"] ;
26 -> 27 ;
28 [label="squared_error = 0.0\nsamples = 1\nvalue = 24.4", fillcolor="#f4c9aa"] ;
26 -> 28 ;
29 [label="squared_error = 0.0\nsamples = 1\nvalue = 27.5", fillcolor="#f2c09c"] ;
19 -> 29 ;
30 [label="RM <= 6.126\nsquared_error = 1.546\nsamples = 28\nvalue = 23.157", fillcolor="#f5ccaf"] ;
16 -> 30 ;
31 [label="INDUS <= 7.76\nsquared_error = 1.218\nsamples = 5\nvalue = 21.76", fillcolor="#f5d0b5"] ;
30 -> 31 ;
32 [label="PTRATIO <= 18.0\nsquared_error = 0.442\nsamples = 3\nvalue = 20.967", fillcolor="#f6d2b9"] ;
31 -> 32 ;
33 [label="squared_error = 0.0\nsamples = 1\nvalue = 21.9", fillcolor="#f5d0b5"] ;
32 -> 33 ;
34 [label="ZN <= 40.0\nsquared_error = 0.01\nsamples = 2\nvalue = 20.5", fillcolor="#f6d4bb"] ;
32 -> 34 ;
35 [label="squared_error = 0.0\nsamples = 1\nvalue = 20.4", fillcolor="#f6d4bb"] ;
34 -> 35 ;
36 [label="squared_error = -0.0\nsamples = 1\nvalue = 20.6", fillcolor="#f6d3ba"] ;
34 -> 36 ;
37 [label="NOX <= 0.475\nsquared_error = 0.023\nsamples = 2\nvalue = 22.95", fillcolor="#f5cdb0"] ;
31 -> 37 ;
38 [label="squared_error = 0.0\nsamples = 1\nvalue = 22.8", fillcolor="#f5cdb1"] ;
37 -> 38 ;
39 [label="squared_error = -0.0\nsamples = 1\nvalue = 23.1", fillcolor="#f5ccaf"] ;
37 -> 39 ;
40 [label="PTRATIO <= 19.65\nsquared_error = 1.101\nsamples = 23\nvalue = 23.461", fillcolor="#f4cbae"] ;
30 -> 40 ;
41 [label="LSTAT <= 6.135\nsquared_error = 0.676\nsamples = 18\nvalue = 23.794", fillcolor="#f4caac"] ;
40 -> 41 ;
42 [label="PTRATIO <= 16.7\nsquared_error = 0.325\nsamples = 7\nvalue = 24.471", fillcolor="#f4c8a9"] ;
41 -> 42 ;
43 [label="CRIM <= 0.082\nsquared_error = 0.01\nsamples = 2\nvalue = 23.6", fillcolor="#f4cbad"] ;
42 -> 43 ;
44 [label="squared_error = 0.0\nsamples = 1\nvalue = 23.5", fillcolor="#f4cbae"] ;
43 -> 44 ;
45 [label="squared_error = -0.0\nsamples = 1\nvalue = 23.7", fillcolor="#f4cbad"] ;
43 -> 45 ;
46 [label="AGE <= 17.9\nsquared_error = 0.026\nsamples = 5\nvalue = 24.82", fillcolor="#f4c8a8"] ;
42 -> 46 ;
47 [label="CRIM <= 0.203\nsquared_error = 0.01\nsamples = 2\nvalue = 24.7", fillcolor="#f4c8a8"] ;
46 -> 47 ;
48 [label="squared_error = 0.0\nsamples = 1\nvalue = 24.6", fillcolor="#f4c8a9"] ;
47 -> 48 ;
49 [label="squared_error = 0.0\nsamples = 1\nvalue = 24.8", fillcolor="#f4c8a8"] ;
47 -> 49 ;
50 [label="TAX <= 300.0\nsquared_error = 0.02\nsamples = 3\nvalue = 24.9", fillcolor="#f4c7a7"] ;
46 -> 50 ;
51 [label="squared_error = 0.0\nsamples = 2\nvalue = 25.0", fillcolor="#f3c7a7"] ;
50 -> 51 ;
52 [label="squared_error = -0.0\nsamples = 1\nvalue = 24.7", fillcolor="#f4c8a8"] ;
50 -> 52 ;
53 [label="RAD <= 3.5\nsquared_error = 0.422\nsamples = 11\nvalue = 23.364", fillcolor="#f4ccae"] ;
41 -> 53 ;
54 [label="ZN <= 41.25\nsquared_error = 0.09\nsamples = 2\nvalue = 24.4", fillcolor="#f4c9aa"] ;
53 -> 54 ;
55 [label="squared_error = 0.0\nsamples = 1\nvalue = 24.7", fillcolor="#f4c8a8"] ;
54 -> 55 ;
56 [label="squared_error = 0.0\nsamples = 1\nvalue = 24.1", fillcolor="#f4caab"] ;
54 -> 56 ;
57 [label="CRIM <= 0.075\nsquared_error = 0.204\nsamples = 9\nvalue = 23.133", fillcolor="#f5ccaf"] ;
53 -> 57 ;
58 [label="LSTAT <= 7.24\nsquared_error = 0.135\nsamples = 4\nvalue = 22.8", fillcolor="#f5cdb1"] ;
57 -> 58 ;
59 [label="RAD <= 5.0\nsquared_error = 0.003\nsamples = 2\nvalue = 23.15", fillcolor="#f5ccaf"] ;
58 -> 59 ;
60 [label="squared_error = 0.0\nsamples = 1\nvalue = 23.1", fillcolor="#f5ccaf"] ;
59 -> 60 ;
61 [label="squared_error = 0.0\nsamples = 1\nvalue = 23.2", fillcolor="#f4ccaf"] ;
59 -> 61 ;
62 [label="ZN <= 26.25\nsquared_error = 0.022\nsamples = 2\nvalue = 22.45", fillcolor="#f5ceb2"] ;
58 -> 62 ;
63 [label="squared_error = 0.0\nsamples = 1\nvalue = 22.6", fillcolor="#f5ceb2"] ;
62 -> 63 ;
64 [label="squared_error = -0.0\nsamples = 1\nvalue = 22.3", fillcolor="#f5cfb3"] ;
62 -> 64 ;
65 [label="CRIM <= 0.175\nsquared_error = 0.1\nsamples = 5\nvalue = 23.4", fillcolor="#f4cbae"] ;
57 -> 65 ;
66 [label="INDUS <= 6.155\nsquared_error = 0.003\nsamples = 2\nvalue = 23.75", fillcolor="#f4caac"] ;
65 -> 66 ;
67 [label="squared_error = 0.0\nsamples = 1\nvalue = 23.7", fillcolor="#f4cbad"] ;
66 -> 67 ;
68 [label="squared_error = 0.0\nsamples = 1\nvalue = 23.8", fillcolor="#f4caac"] ;
66 -> 68 ;
69 [label="LSTAT <= 7.205\nsquared_error = 0.029\nsamples = 3\nvalue = 23.167", fillcolor="#f5ccaf"] ;
65 -> 69 ;
70 [label="DIS <= 4.978\nsquared_error = 0.003\nsamples = 2\nvalue = 23.05", fillcolor="#f5ccb0"] ;
69 -> 70 ;
71 [label="squared_error = 0.0\nsamples = 1\nvalue = 23.1", fillcolor="#f5ccaf"] ;
70 -> 71 ;
72 [label="squared_error = 0.0\nsamples = 1\nvalue = 23.0", fillcolor="#f5cdb0"] ;
70 -> 72 ;
73 [label="squared_error = 0.0\nsamples = 1\nvalue = 23.4", fillcolor="#f4cbae"] ;
69 -> 73 ;
74 [label="B <= 389.555\nsquared_error = 0.786\nsamples = 5\nvalue = 22.26", fillcolor="#f5cfb3"] ;
40 -> 74 ;
75 [label="squared_error = 0.0\nsamples = 1\nvalue = 20.7", fillcolor="#f6d3ba"] ;
74 -> 75 ;
76 [label="DIS <= 7.52\nsquared_error = 0.222\nsamples = 4\nvalue = 22.65", fillcolor="#f5ceb1"] ;
74 -> 76 ;
77 [label="squared_error = 0.0\nsamples = 2\nvalue = 22.2", fillcolor="#f5cfb3"] ;
76 -> 77 ;
78 [label="INDUS <= 3.19\nsquared_error = 0.04\nsamples = 2\nvalue = 23.1", fillcolor="#f5ccaf"] ;
76 -> 78 ;
79 [label="squared_error = 0.0\nsamples = 1\nvalue = 22.9", fillcolor="#f5cdb0"] ;
78 -> 79 ;
80 [label="squared_error = -0.0\nsamples = 1\nvalue = 23.3", fillcolor="#f4ccae"] ;
78 -> 80 ;
81 [label="RM <= 5.76\nsquared_error = 5.458\nsamples = 109\nvalue = 20.747", fillcolor="#f6d3ba"] ;
15 -> 81 ;
82 [label="NOX <= 0.606\nsquared_error = 5.44\nsamples = 19\nvalue = 18.795", fillcolor="#f7d8c2"] ;
81 -> 82 ;
83 [label="CRIM <= 1.719\nsquared_error = 1.959\nsamples = 12\nvalue = 17.708", fillcolor="#f8dbc7"] ;
82 -> 83 ;
84 [label="DIS <= 3.871\nsquared_error = 1.172\nsamples = 10\nvalue = 18.14", fillcolor="#f7dac5"] ;
83 -> 84 ;
85 [label="AGE <= 67.35\nsquared_error = 0.669\nsamples = 3\nvalue = 19.233", fillcolor="#f7d7c0"] ;
84 -> 85 ;
86 [label="INDUS <= 9.075\nsquared_error = 0.202\nsamples = 2\nvalue = 19.75", fillcolor="#f6d6be"] ;
85 -> 86 ;
87 [label="squared_error = 0.0\nsamples = 1\nvalue = 20.2", fillcolor="#f6d4bc"] ;
86 -> 87 ;
88 [label="squared_error = 0.0\nsamples = 1\nvalue = 19.3", fillcolor="#f7d7c0"] ;
86 -> 88 ;
89 [label="squared_error = -0.0\nsamples = 1\nvalue = 18.2", fillcolor="#f7dac5"] ;
85 -> 89 ;
90 [label="PTRATIO <= 19.35\nsquared_error = 0.656\nsamples = 7\nvalue = 17.671", fillcolor="#f8dcc7"] ;
84 -> 90 ;
91 [label="INDUS <= 7.985\nsquared_error = 0.287\nsamples = 4\nvalue = 17.075", fillcolor="#f8ddca"] ;
90 -> 91 ;
92 [label="LSTAT <= 12.465\nsquared_error = 0.042\nsamples = 3\nvalue = 17.367", fillcolor="#f8dcc9"] ;
91 -> 92 ;
93 [label="squared_error = 0.0\nsamples = 1\nvalue = 17.1", fillcolor="#f8ddca"] ;
92 -> 93 ;
94 [label="RM <= 5.593\nsquared_error = 0.01\nsamples = 2\nvalue = 17.5", fillcolor="#f8dcc8"] ;
92 -> 94 ;
95 [label="squared_error = 0.0\nsamples = 1\nvalue = 17.6", fillcolor="#f8dcc8"] ;
94 -> 95 ;
96 [label="squared_error = 0.0\nsamples = 1\nvalue = 17.4", fillcolor="#f8dcc8"] ;
94 -> 96 ;
97 [label="squared_error = -0.0\nsamples = 1\nvalue = 16.2", fillcolor="#f9e0ce"] ;
91 -> 97 ;
98 [label="PTRATIO <= 20.85\nsquared_error = 0.042\nsamples = 3\nvalue = 18.467", fillcolor="#f7d9c4"] ;
90 -> 98 ;
99 [label="RAD <= 6.5\nsquared_error = 0.01\nsamples = 2\nvalue = 18.6", fillcolor="#f7d9c3"] ;
98 -> 99 ;
100 [label="squared_error = 0.0\nsamples = 1\nvalue = 18.5", fillcolor="#f7d9c4"] ;
99 -> 100 ;
101 [label="squared_error = -0.0\nsamples = 1\nvalue = 18.7", fillcolor="#f7d9c3"] ;
99 -> 101 ;
102 [label="squared_error = -0.0\nsamples = 1\nvalue = 18.2", fillcolor="#f7dac5"] ;
98 -> 102 ;
103 [label="CRIM <= 26.886\nsquared_error = 0.302\nsamples = 2\nvalue = 15.55", fillcolor="#f9e1d1"] ;
83 -> 103 ;
104 [label="squared_error = 0.0\nsamples = 1\nvalue = 16.1", fillcolor="#f9e0ce"] ;
103 -> 104 ;
105 [label="squared_error = 0.0\nsamples = 1\nvalue = 15.0", fillcolor="#f9e3d3"] ;
103 -> 105 ;
106 [label="NOX <= 0.82\nsquared_error = 5.917\nsamples = 7\nvalue = 20.657", fillcolor="#f6d3ba"] ;
82 -> 106 ;
107 [label="LSTAT <= 14.05\nsquared_error = 1.323\nsamples = 6\nvalue = 21.55", fillcolor="#f5d1b6"] ;
106 -> 107 ;
108 [label="NOX <= 0.683\nsquared_error = 0.802\nsamples = 4\nvalue = 22.15", fillcolor="#f5cfb4"] ;
107 -> 108 ;
109 [label="TAX <= 465.0\nsquared_error = 0.022\nsamples = 2\nvalue = 22.95", fillcolor="#f5cdb0"] ;
108 -> 109 ;
110 [label="squared_error = 0.0\nsamples = 1\nvalue = 22.8", fillcolor="#f5cdb1"] ;
109 -> 110 ;
111 [label="squared_error = -0.0\nsamples = 1\nvalue = 23.1", fillcolor="#f5ccaf"] ;
109 -> 111 ;
112 [label="CRIM <= 3.688\nsquared_error = 0.303\nsamples = 2\nvalue = 21.35", fillcolor="#f6d1b7"] ;
108 -> 112 ;
113 [label="squared_error = 0.0\nsamples = 1\nvalue = 20.8", fillcolor="#f6d3b9"] ;
112 -> 113 ;
114 [label="squared_error = -0.0\nsamples = 1\nvalue = 21.9", fillcolor="#f5d0b5"] ;
112 -> 114 ;
115 [label="AGE <= 67.9\nsquared_error = 0.203\nsamples = 2\nvalue = 20.35", fillcolor="#f6d4bb"] ;
107 -> 115 ;
116 [label="squared_error = 0.0\nsamples = 1\nvalue = 19.9", fillcolor="#f6d5bd"] ;
115 -> 116 ;
117 [label="squared_error = -0.0\nsamples = 1\nvalue = 20.8", fillcolor="#f6d3b9"] ;
115 -> 117 ;
118 [label="squared_error = -0.0\nsamples = 1\nvalue = 15.3", fillcolor="#f9e2d2"] ;
106 -> 118 ;
119 [label="PTRATIO <= 20.55\nsquared_error = 4.487\nsamples = 90\nvalue = 21.159", fillcolor="#f6d2b8"] ;
81 -> 119 ;
120 [label="RM <= 6.318\nsquared_error = 4.077\nsamples = 77\nvalue = 21.477", fillcolor="#f5d1b7"] ;
119 -> 120 ;
121 [label="LSTAT <= 14.26\nsquared_error = 2.948\nsamples = 60\nvalue = 21.102", fillcolor="#f6d2b8"] ;
120 -> 121 ;
122 [label="CRIM <= 0.035\nsquared_error = 2.679\nsamples = 59\nvalue = 21.175", fillcolor="#f6d2b8"] ;
121 -> 122 ;
123 [label="TAX <= 328.0\nsquared_error = 1.11\nsamples = 5\nvalue = 19.42", fillcolor="#f7d7c0"] ;
122 -> 123 ;
124 [label="CRIM <= 0.034\nsquared_error = 0.235\nsamples = 4\nvalue = 19.9", fillcolor="#f6d5bd"] ;
123 -> 124 ;
125 [label="CRIM <= 0.026\nsquared_error = 0.062\nsamples = 2\nvalue = 20.35", fillcolor="#f6d4bb"] ;
124 -> 125 ;
126 [label="squared_error = 0.0\nsamples = 1\nvalue = 20.1", fillcolor="#f6d5bd"] ;
125 -> 126 ;
127 [label="squared_error = 0.0\nsamples = 1\nvalue = 20.6", fillcolor="#f6d3ba"] ;
125 -> 127 ;
128 [label="LSTAT <= 8.815\nsquared_error = 0.003\nsamples = 2\nvalue = 19.45", fillcolor="#f7d7bf"] ;
124 -> 128 ;
129 [label="squared_error = 0.0\nsamples = 1\nvalue = 19.4", fillcolor="#f7d7c0"] ;
128 -> 129 ;
130 [label="squared_error = -0.0\nsamples = 1\nvalue = 19.5", fillcolor="#f7d6bf"] ;
128 -> 130 ;
131 [label="squared_error = 0.0\nsamples = 1\nvalue = 17.5", fillcolor="#f8dcc8"] ;
123 -> 131 ;
132 [label="B <= 294.145\nsquared_error = 2.513\nsamples = 54\nvalue = 21.337", fillcolor="#f6d1b7"] ;
122 -> 132 ;
133 [label="squared_error = 0.0\nsamples = 1\nvalue = 25.0", fillcolor="#f3c7a7"] ;
132 -> 133 ;
134 [label="TAX <= 394.5\nsquared_error = 2.302\nsamples = 53\nvalue = 21.268", fillcolor="#f6d1b7"] ;
132 -> 134 ;
135 [label="TAX <= 238.0\nsquared_error = 2.583\nsamples = 34\nvalue = 21.656", fillcolor="#f5d0b6"] ;
134 -> 135 ;
136 [label="AGE <= 43.75\nsquared_error = 0.94\nsamples = 7\nvalue = 20.257", fillcolor="#f6d4bc"] ;
135 -> 136 ;
137 [label="RM <= 5.821\nsquared_error = 0.242\nsamples = 4\nvalue = 20.85", fillcolor="#f6d3b9"] ;
136 -> 137 ;
138 [label="squared_error = 0.0\nsamples = 1\nvalue = 20.0", fillcolor="#f6d5bd"] ;
137 -> 138 ;
139 [label="PTRATIO <= 18.25\nsquared_error = 0.002\nsamples = 3\nvalue = 21.133", fillcolor="#f6d2b8"] ;
137 -> 139 ;
140 [label="squared_error = 0.0\nsamples = 1\nvalue = 21.2", fillcolor="#f6d2b8"] ;
139 -> 140 ;
141 [label="squared_error = 0.0\nsamples = 2\nvalue = 21.1", fillcolor="#f6d2b8"] ;
139 -> 141 ;
142 [label="INDUS <= 6.075\nsquared_error = 0.776\nsamples = 3\nvalue = 19.467", fillcolor="#f7d6bf"] ;
136 -> 142 ;
143 [label="RM <= 5.977\nsquared_error = 0.022\nsamples = 2\nvalue = 18.85", fillcolor="#f7d8c2"] ;
142 -> 143 ;
144 [label="squared_error = 0.0\nsamples = 1\nvalue = 18.7", fillcolor="#f7d9c3"] ;
143 -> 144 ;
145 [label="squared_error = -0.0\nsamples = 1\nvalue = 19.0", fillcolor="#f7d8c1"] ;
143 -> 145 ;
146 [label="squared_error = -0.0\nsamples = 1\nvalue = 20.7", fillcolor="#f6d3ba"] ;
142 -> 146 ;
147 [label="B <= 394.125\nsquared_error = 2.37\nsamples = 27\nvalue = 22.019", fillcolor="#f5cfb4"] ;
135 -> 147 ;
148 [label="DIS <= 3.525\nsquared_error = 2.554\nsamples = 10\nvalue = 22.88", fillcolor="#f5cdb0"] ;
147 -> 148 ;
149 [label="RM <= 5.85\nsquared_error = 0.86\nsamples = 4\nvalue = 21.4", fillcolor="#f6d1b7"] ;
148 -> 149 ;
150 [label="squared_error = 0.0\nsamples = 1\nvalue = 20.0", fillcolor="#f6d5bd"] ;
149 -> 150 ;
151 [label="RM <= 6.011\nsquared_error = 0.276\nsamples = 3\nvalue = 21.867", fillcolor="#f5d0b5"] ;
149 -> 151 ;
152 [label="squared_error = 0.0\nsamples = 1\nvalue = 22.6", fillcolor="#f5ceb2"] ;
151 -> 152 ;
153 [label="DIS <= 3.379\nsquared_error = 0.01\nsamples = 2\nvalue = 21.5", fillcolor="#f5d1b6"] ;
151 -> 153 ;
154 [label="squared_error = 0.0\nsamples = 1\nvalue = 21.6", fillcolor="#f5d1b6"] ;
153 -> 154 ;
155 [label="squared_error = 0.0\nsamples = 1\nvalue = 21.4", fillcolor="#f6d1b7"] ;
153 -> 155 ;
156 [label="CRIM <= 0.167\nsquared_error = 1.249\nsamples = 6\nvalue = 23.867", fillcolor="#f4caac"] ;
148 -> 156 ;
157 [label="NOX <= 0.461\nsquared_error = 0.563\nsamples = 2\nvalue = 22.45", fillcolor="#f5ceb2"] ;
156 -> 157 ;
158 [label="squared_error = 0.0\nsamples = 1\nvalue = 21.7", fillcolor="#f5d0b6"] ;
157 -> 158 ;
159 [label="squared_error = 0.0\nsamples = 1\nvalue = 23.2", fillcolor="#f4ccaf"] ;
157 -> 159 ;
160 [label="B <= 391.805\nsquared_error = 0.087\nsamples = 4\nvalue = 24.575", fillcolor="#f4c8a9"] ;
156 -> 160 ;
161 [label="squared_error = 0.0\nsamples = 2\nvalue = 24.3", fillcolor="#f4c9aa"] ;
160 -> 161 ;
162 [label="DIS <= 3.896\nsquared_error = 0.022\nsamples = 2\nvalue = 24.85", fillcolor="#f4c7a8"] ;
160 -> 162 ;
163 [label="squared_error = 0.0\nsamples = 1\nvalue = 24.7", fillcolor="#f4c8a8"] ;
162 -> 163 ;
164 [label="squared_error = -0.0\nsamples = 1\nvalue = 25.0", fillcolor="#f3c7a7"] ;
162 -> 164 ;
165 [label="CRIM <= 0.089\nsquared_error = 1.569\nsamples = 17\nvalue = 21.512", fillcolor="#f5d1b6"] ;
147 -> 165 ;
166 [label="RM <= 5.877\nsquared_error = 0.92\nsamples = 9\nvalue = 22.278", fillcolor="#f5cfb3"] ;
165 -> 166 ;
167 [label="RM <= 5.863\nsquared_error = 0.002\nsamples = 2\nvalue = 20.95", fillcolor="#f6d2b9"] ;
166 -> 167 ;
168 [label="squared_error = 0.0\nsamples = 1\nvalue = 21.0", fillcolor="#f6d2b9"] ;
167 -> 168 ;
169 [label="squared_error = 0.0\nsamples = 1\nvalue = 20.9", fillcolor="#f6d2b9"] ;
167 -> 169 ;
170 [label="RM <= 6.124\nsquared_error = 0.534\nsamples = 7\nvalue = 22.657", fillcolor="#f5ceb1"] ;
166 -> 170 ;
171 [label="ZN <= 16.75\nsquared_error = 0.323\nsamples = 6\nvalue = 22.45", fillcolor="#f5ceb2"] ;
170 -> 171 ;
172 [label="LSTAT <= 11.415\nsquared_error = 0.17\nsamples = 5\nvalue = 22.26", fillcolor="#f5cfb3"] ;
171 -> 172 ;
173 [label="B <= 396.555\nsquared_error = 0.042\nsamples = 3\nvalue = 21.967", fillcolor="#f5cfb4"] ;
172 -> 173 ;
174 [label="PTRATIO <= 18.7\nsquared_error = 0.01\nsamples = 2\nvalue = 22.1", fillcolor="#f5cfb4"] ;
173 -> 174 ;
175 [label="squared_error = 0.0\nsamples = 1\nvalue = 22.2", fillcolor="#f5cfb3"] ;
174 -> 175 ;
176 [label="squared_error = -0.0\nsamples = 1\nvalue = 22.0", fillcolor="#f5cfb4"] ;
174 -> 176 ;
177 [label="squared_error = 0.0\nsamples = 1\nvalue = 21.7", fillcolor="#f5d0b6"] ;
173 -> 177 ;
178 [label="AGE <= 55.85\nsquared_error = 0.04\nsamples = 2\nvalue = 22.7", fillcolor="#f5cdb1"] ;
172 -> 178 ;
179 [label="squared_error = 0.0\nsamples = 1\nvalue = 22.5", fillcolor="#f5ceb2"] ;
178 -> 179 ;
180 [label="squared_error = -0.0\nsamples = 1\nvalue = 22.9", fillcolor="#f5cdb0"] ;
178 -> 180 ;
181 [label="squared_error = -0.0\nsamples = 1\nvalue = 23.4", fillcolor="#f4cbae"] ;
171 -> 181 ;
182 [label="squared_error = -0.0\nsamples = 1\nvalue = 23.9", fillcolor="#f4caac"] ;
170 -> 182 ;
183 [label="AGE <= 27.65\nsquared_error = 0.897\nsamples = 8\nvalue = 20.65", fillcolor="#f6d3ba"] ;
165 -> 183 ;
184 [label="squared_error = 0.0\nsamples = 1\nvalue = 22.6", fillcolor="#f5ceb2"] ;
183 -> 184 ;
185 [label="B <= 396.6\nsquared_error = 0.405\nsamples = 7\nvalue = 20.371", fillcolor="#f6d4bb"] ;
183 -> 185 ;
186 [label="RM <= 6.104\nsquared_error = 0.3\nsamples = 5\nvalue = 20.1", fillcolor="#f6d5bd"] ;
185 -> 186 ;
187 [label="AGE <= 83.55\nsquared_error = 0.122\nsamples = 4\nvalue = 19.875", fillcolor="#f6d5be"] ;
186 -> 187 ;
188 [label="DIS <= 6.575\nsquared_error = 0.062\nsamples = 3\nvalue = 20.033", fillcolor="#f6d5bd"] ;
187 -> 188 ;
189 [label="RM <= 6.033\nsquared_error = 0.01\nsamples = 2\nvalue = 20.2", fillcolor="#f6d4bc"] ;
188 -> 189 ;
190 [label="squared_error = 0.0\nsamples = 1\nvalue = 20.3", fillcolor="#f6d4bc"] ;
189 -> 190 ;
191 [label="squared_error = -0.0\nsamples = 1\nvalue = 20.1", fillcolor="#f6d5bd"] ;
189 -> 191 ;
192 [label="squared_error = -0.0\nsamples = 1\nvalue = 19.7", fillcolor="#f7d6be"] ;
188 -> 192 ;
193 [label="squared_error = -0.0\nsamples = 1\nvalue = 19.4", fillcolor="#f7d7c0"] ;
187 -> 193 ;
194 [label="squared_error = 0.0\nsamples = 1\nvalue = 21.0", fillcolor="#f6d2b9"] ;
186 -> 194 ;
195 [label="INDUS <= 7.88\nsquared_error = 0.022\nsamples = 2\nvalue = 21.05", fillcolor="#f6d2b8"] ;
185 -> 195 ;
196 [label="squared_error = 0.0\nsamples = 1\nvalue = 20.9", fillcolor="#f6d2b9"] ;
195 -> 196 ;
197 [label="squared_error = 0.0\nsamples = 1\nvalue = 21.2", fillcolor="#f6d2b8"] ;
195 -> 197 ;
198 [label="CRIM <= 0.078\nsquared_error = 1.048\nsamples = 19\nvalue = 20.574", fillcolor="#f6d3ba"] ;
134 -> 198 ;
199 [label="INDUS <= 2.465\nsquared_error = 0.36\nsamples = 2\nvalue = 19.2", fillcolor="#f7d7c1"] ;
198 -> 199 ;
200 [label="squared_error = 0.0\nsamples = 1\nvalue = 18.6", fillcolor="#f7d9c3"] ;
199 -> 200 ;
201 [label="squared_error = -0.0\nsamples = 1\nvalue = 19.8", fillcolor="#f6d6be"] ;
199 -> 201 ;
202 [label="AGE <= 81.95\nsquared_error = 0.881\nsamples = 17\nvalue = 20.735", fillcolor="#f6d3ba"] ;
198 -> 202 ;
203 [label="AGE <= 77.9\nsquared_error = 0.489\nsamples = 11\nvalue = 21.082", fillcolor="#f6d2b8"] ;
202 -> 203 ;
204 [label="B <= 378.445\nsquared_error = 0.284\nsamples = 10\nvalue = 20.93", fillcolor="#f6d2b9"] ;
203 -> 204 ;
205 [label="TAX <= 532.0\nsquared_error = 0.09\nsamples = 2\nvalue = 20.3", fillcolor="#f6d4bc"] ;
204 -> 205 ;
206 [label="squared_error = 0.0\nsamples = 1\nvalue = 20.0", fillcolor="#f6d5bd"] ;
205 -> 206 ;
207 [label="squared_error = 0.0\nsamples = 1\nvalue = 20.6", fillcolor="#f6d3ba"] ;
205 -> 207 ;
208 [label="CRIM <= 0.091\nsquared_error = 0.209\nsamples = 8\nvalue = 21.088", fillcolor="#f6d2b8"] ;
204 -> 208 ;
209 [label="B <= 391.51\nsquared_error = 0.062\nsamples = 2\nvalue = 20.55", fillcolor="#f6d3bb"] ;
208 -> 209 ;
210 [label="squared_error = 0.0\nsamples = 1\nvalue = 20.8", fillcolor="#f6d3b9"] ;
209 -> 210 ;
211 [label="squared_error = -0.0\nsamples = 1\nvalue = 20.3", fillcolor="#f6d4bc"] ;
209 -> 211 ;
212 [label="RM <= 5.834\nsquared_error = 0.129\nsamples = 6\nvalue = 21.267", fillcolor="#f6d1b7"] ;
208 -> 212 ;
213 [label="squared_error = 0.0\nsamples = 1\nvalue = 21.8", fillcolor="#f5d0b5"] ;
212 -> 213 ;
214 [label="RM <= 6.041\nsquared_error = 0.086\nsamples = 5\nvalue = 21.16", fillcolor="#f6d2b8"] ;
212 -> 214 ;
215 [label="squared_error = 0.0\nsamples = 1\nvalue = 20.6", fillcolor="#f6d3ba"] ;
214 -> 215 ;
216 [label="NOX <= 0.619\nsquared_error = 0.01\nsamples = 4\nvalue = 21.3", fillcolor="#f6d1b7"] ;
214 -> 216 ;
217 [label="CRIM <= 0.113\nsquared_error = 0.009\nsamples = 3\nvalue = 21.267", fillcolor="#f6d1b7"] ;
216 -> 217 ;
218 [label="squared_error = 0.0\nsamples = 1\nvalue = 21.4", fillcolor="#f6d1b7"] ;
217 -> 218 ;
219 [label="squared_error = 0.0\nsamples = 2\nvalue = 21.2", fillcolor="#f6d2b8"] ;
217 -> 219 ;
220 [label="squared_error = -0.0\nsamples = 1\nvalue = 21.4", fillcolor="#f6d1b7"] ;
216 -> 220 ;
221 [label="squared_error = -0.0\nsamples = 1\nvalue = 22.6", fillcolor="#f5ceb2"] ;
203 -> 221 ;
222 [label="DIS <= 2.123\nsquared_error = 0.977\nsamples = 6\nvalue = 20.1", fillcolor="#f6d5bd"] ;
202 -> 222 ;
223 [label="TAX <= 534.5\nsquared_error = 0.002\nsamples = 2\nvalue = 21.45", fillcolor="#f5d1b7"] ;
222 -> 223 ;
224 [label="squared_error = 0.0\nsamples = 1\nvalue = 21.5", fillcolor="#f5d1b6"] ;
223 -> 224 ;
225 [label="squared_error = 0.0\nsamples = 1\nvalue = 21.4", fillcolor="#f6d1b7"] ;
223 -> 225 ;
226 [label="RM <= 6.136\nsquared_error = 0.097\nsamples = 4\nvalue = 19.425", fillcolor="#f7d7c0"] ;
222 -> 226 ;
227 [label="NOX <= 0.576\nsquared_error = 0.003\nsamples = 2\nvalue = 19.15", fillcolor="#f7d7c1"] ;
226 -> 227 ;
228 [label="squared_error = 0.0\nsamples = 1\nvalue = 19.2", fillcolor="#f7d7c1"] ;
227 -> 228 ;
229 [label="squared_error = 0.0\nsamples = 1\nvalue = 19.1", fillcolor="#f7d8c1"] ;
227 -> 229 ;
230 [label="AGE <= 87.05\nsquared_error = 0.04\nsamples = 2\nvalue = 19.7", fillcolor="#f7d6be"] ;
226 -> 230 ;
231 [label="squared_error = 0.0\nsamples = 1\nvalue = 19.5", fillcolor="#f7d6bf"] ;
230 -> 231 ;
232 [label="squared_error = 0.0\nsamples = 1\nvalue = 19.9", fillcolor="#f6d5bd"] ;
230 -> 232 ;
233 [label="squared_error = -0.0\nsamples = 1\nvalue = 16.8", fillcolor="#f8decb"] ;
121 -> 233 ;
234 [label="RM <= 6.504\nsquared_error = 5.813\nsamples = 17\nvalue = 22.8", fillcolor="#f5cdb1"] ;
120 -> 234 ;
235 [label="AGE <= 52.7\nsquared_error = 3.139\nsamples = 15\nvalue = 23.393", fillcolor="#f4cbae"] ;
234 -> 235 ;
236 [label="NOX <= 0.41\nsquared_error = 4.23\nsamples = 5\nvalue = 25.08", fillcolor="#f3c7a7"] ;
235 -> 236 ;
237 [label="squared_error = 0.0\nsamples = 1\nvalue = 22.0", fillcolor="#f5cfb4"] ;
236 -> 237 ;
238 [label="AGE <= 40.7\nsquared_error = 2.322\nsamples = 4\nvalue = 25.85", fillcolor="#f3c5a3"] ;
236 -> 238 ;
239 [label="NOX <= 0.461\nsquared_error = 0.723\nsamples = 2\nvalue = 27.25", fillcolor="#f2c19d"] ;
238 -> 239 ;
240 [label="squared_error = 0.0\nsamples = 1\nvalue = 26.4", fillcolor="#f3c3a1"] ;
239 -> 240 ;
241 [label="squared_error = 0.0\nsamples = 1\nvalue = 28.1", fillcolor="#f2be99"] ;
239 -> 241 ;
242 [label="TAX <= 303.5\nsquared_error = 0.002\nsamples = 2\nvalue = 24.45", fillcolor="#f4c9a9"] ;
238 -> 242 ;
243 [label="squared_error = 0.0\nsamples = 1\nvalue = 24.4", fillcolor="#f4c9aa"] ;
242 -> 243 ;
244 [label="squared_error = 0.0\nsamples = 1\nvalue = 24.5", fillcolor="#f4c8a9"] ;
242 -> 244 ;
245 [label="AGE <= 95.65\nsquared_error = 0.461\nsamples = 10\nvalue = 22.55", fillcolor="#f5ceb2"] ;
235 -> 245 ;
246 [label="CRIM <= 0.043\nsquared_error = 0.319\nsamples = 9\nvalue = 22.411", fillcolor="#f5ceb2"] ;
245 -> 246 ;
247 [label="TAX <= 256.0\nsquared_error = 0.04\nsamples = 2\nvalue = 21.8", fillcolor="#f5d0b5"] ;
246 -> 247 ;
248 [label="squared_error = 0.0\nsamples = 1\nvalue = 21.6", fillcolor="#f5d1b6"] ;
247 -> 248 ;
249 [label="squared_error = 0.0\nsamples = 1\nvalue = 22.0", fillcolor="#f5cfb4"] ;
247 -> 249 ;
250 [label="B <= 391.76\nsquared_error = 0.261\nsamples = 7\nvalue = 22.586", fillcolor="#f5ceb2"] ;
246 -> 250 ;
251 [label="PTRATIO <= 18.4\nsquared_error = 0.069\nsamples = 3\nvalue = 22.067", fillcolor="#f5cfb4"] ;
250 -> 251 ;
252 [label="CRIM <= 1.276\nsquared_error = 0.002\nsamples = 2\nvalue = 22.25", fillcolor="#f5cfb3"] ;
251 -> 252 ;
253 [label="squared_error = 0.0\nsamples = 1\nvalue = 22.2", fillcolor="#f5cfb3"] ;
252 -> 253 ;
254 [label="squared_error = 0.0\nsamples = 1\nvalue = 22.3", fillcolor="#f5cfb3"] ;
252 -> 254 ;
255 [label="squared_error = -0.0\nsamples = 1\nvalue = 21.7", fillcolor="#f5d0b6"] ;
251 -> 255 ;
256 [label="AGE <= 66.65\nsquared_error = 0.052\nsamples = 4\nvalue = 22.975", fillcolor="#f5cdb0"] ;
250 -> 256 ;
257 [label="squared_error = 0.0\nsamples = 1\nvalue = 22.6", fillcolor="#f5ceb2"] ;
256 -> 257 ;
258 [label="B <= 393.555\nsquared_error = 0.007\nsamples = 3\nvalue = 23.1", fillcolor="#f5ccaf"] ;
256 -> 258 ;
259 [label="squared_error = 0.0\nsamples = 1\nvalue = 23.2", fillcolor="#f4ccaf"] ;
258 -> 259 ;
260 [label="CRIM <= 0.258\nsquared_error = 0.002\nsamples = 2\nvalue = 23.05", fillcolor="#f5ccb0"] ;
258 -> 260 ;
261 [label="squared_error = 0.0\nsamples = 1\nvalue = 23.0", fillcolor="#f5cdb0"] ;
260 -> 261 ;
262 [label="squared_error = 0.0\nsamples = 1\nvalue = 23.1", fillcolor="#f5ccaf"] ;
260 -> 262 ;
263 [label="squared_error = 0.0\nsamples = 1\nvalue = 23.8", fillcolor="#f4caac"] ;
245 -> 263 ;
264 [label="NOX <= 0.616\nsquared_error = 3.423\nsamples = 2\nvalue = 18.35", fillcolor="#f7dac4"] ;
234 -> 264 ;
265 [label="squared_error = 0.0\nsamples = 1\nvalue = 16.5", fillcolor="#f8dfcc"] ;
264 -> 265 ;
266 [label="squared_error = -0.0\nsamples = 1\nvalue = 20.2", fillcolor="#f6d4bc"] ;
264 -> 266 ;
267 [label="CRIM <= 1.274\nsquared_error = 2.779\nsamples = 13\nvalue = 19.277", fillcolor="#f7d7c0"] ;
119 -> 267 ;
268 [label="AGE <= 80.6\nsquared_error = 0.95\nsamples = 12\nvalue = 19.675", fillcolor="#f7d6be"] ;
267 -> 268 ;
269 [label="NOX <= 0.529\nsquared_error = 0.433\nsamples = 4\nvalue = 20.65", fillcolor="#f6d3ba"] ;
268 -> 269 ;
270 [label="squared_error = 0.0\nsamples = 1\nvalue = 21.7", fillcolor="#f5d0b6"] ;
269 -> 270 ;
271 [label="B <= 396.26\nsquared_error = 0.087\nsamples = 3\nvalue = 20.3", fillcolor="#f6d4bc"] ;
269 -> 271 ;
272 [label="squared_error = 0.0\nsamples = 1\nvalue = 19.9", fillcolor="#f6d5bd"] ;
271 -> 272 ;
273 [label="RM <= 6.034\nsquared_error = 0.01\nsamples = 2\nvalue = 20.5", fillcolor="#f6d4bb"] ;
271 -> 273 ;
274 [label="squared_error = 0.0\nsamples = 1\nvalue = 20.4", fillcolor="#f6d4bb"] ;
273 -> 274 ;
275 [label="squared_error = -0.0\nsamples = 1\nvalue = 20.6", fillcolor="#f6d3ba"] ;
273 -> 275 ;
276 [label="DIS <= 2.574\nsquared_error = 0.496\nsamples = 8\nvalue = 19.188", fillcolor="#f7d7c1"] ;
268 -> 276 ;
277 [label="RM <= 6.227\nsquared_error = 0.188\nsamples = 4\nvalue = 19.75", fillcolor="#f6d6be"] ;
276 -> 277 ;
278 [label="squared_error = 0.0\nsamples = 1\nvalue = 20.4", fillcolor="#f6d4bb"] ;
277 -> 278 ;
279 [label="LSTAT <= 12.435\nsquared_error = 0.062\nsamples = 3\nvalue = 19.533", fillcolor="#f7d6bf"] ;
277 -> 279 ;
280 [label="NOX <= 0.572\nsquared_error = 0.01\nsamples = 2\nvalue = 19.7", fillcolor="#f7d6be"] ;
279 -> 280 ;
281 [label="squared_error = 0.0\nsamples = 1\nvalue = 19.8", fillcolor="#f6d6be"] ;
280 -> 281 ;
282 [label="squared_error = -0.0\nsamples = 1\nvalue = 19.6", fillcolor="#f7d6bf"] ;
280 -> 282 ;
283 [label="squared_error = 0.0\nsamples = 1\nvalue = 19.2", fillcolor="#f7d7c1"] ;
279 -> 283 ;
284 [label="B <= 391.205\nsquared_error = 0.172\nsamples = 4\nvalue = 18.625", fillcolor="#f7d9c3"] ;
276 -> 284 ;
285 [label="AGE <= 84.95\nsquared_error = 0.027\nsamples = 3\nvalue = 18.4", fillcolor="#f7d9c4"] ;
284 -> 285 ;
286 [label="squared_error = 0.0\nsamples = 1\nvalue = 18.2", fillcolor="#f7dac5"] ;
285 -> 286 ;
287 [label="NOX <= 0.529\nsquared_error = 0.01\nsamples = 2\nvalue = 18.5", fillcolor="#f7d9c4"] ;
285 -> 287 ;
288 [label="squared_error = 0.0\nsamples = 1\nvalue = 18.6", fillcolor="#f7d9c3"] ;
287 -> 288 ;
289 [label="squared_error = 0.0\nsamples = 1\nvalue = 18.4", fillcolor="#f7d9c4"] ;
287 -> 289 ;
290 [label="squared_error = 0.0\nsamples = 1\nvalue = 19.3", fillcolor="#f7d7c0"] ;
284 -> 290 ;
291 [label="squared_error = -0.0\nsamples = 1\nvalue = 14.5", fillcolor="#fae4d5"] ;
267 -> 291 ;
292 [label="LSTAT <= 4.695\nsquared_error = 15.988\nsamples = 43\nvalue = 27.733", fillcolor="#f2bf9b"] ;
6 -> 292 ;
293 [label="PTRATIO <= 15.0\nsquared_error = 17.657\nsamples = 12\nvalue = 31.108", fillcolor="#f0b68c"] ;
292 -> 293 ;
294 [label="ZN <= 10.0\nsquared_error = 8.703\nsamples = 2\nvalue = 38.35", fillcolor="#eca26c"] ;
293 -> 294 ;
295 [label="squared_error = 0.0\nsamples = 1\nvalue = 41.3", fillcolor="#ea995f"] ;
294 -> 295 ;
296 [label="squared_error = 0.0\nsamples = 1\nvalue = 35.4", fillcolor="#edaa79"] ;
294 -> 296 ;
297 [label="NOX <= 0.524\nsquared_error = 6.862\nsamples = 10\nvalue = 29.66", fillcolor="#f1ba92"] ;
293 -> 297 ;
298 [label="INDUS <= 6.03\nsquared_error = 1.815\nsamples = 9\nvalue = 30.422", fillcolor="#f0b88f"] ;
297 -> 298 ;
299 [label="AGE <= 29.95\nsquared_error = 0.856\nsamples = 7\nvalue = 29.886", fillcolor="#f1b992"] ;
298 -> 299 ;
300 [label="ZN <= 52.5\nsquared_error = 0.253\nsamples = 4\nvalue = 29.25", fillcolor="#f1bb94"] ;
299 -> 300 ;
301 [label="B <= 384.465\nsquared_error = 0.01\nsamples = 2\nvalue = 29.7", fillcolor="#f1ba92"] ;
300 -> 301 ;
302 [label="squared_error = 0.0\nsamples = 1\nvalue = 29.8", fillcolor="#f1ba92"] ;
301 -> 302 ;
303 [label="squared_error = -0.0\nsamples = 1\nvalue = 29.6", fillcolor="#f1ba93"] ;
301 -> 303 ;
304 [label="CRIM <= 0.025\nsquared_error = 0.09\nsamples = 2\nvalue = 28.8", fillcolor="#f1bc96"] ;
300 -> 304 ;
305 [label="squared_error = 0.0\nsamples = 1\nvalue = 29.1", fillcolor="#f1bc95"] ;
304 -> 305 ;
306 [label="squared_error = -0.0\nsamples = 1\nvalue = 28.5", fillcolor="#f1bd98"] ;
304 -> 306 ;
307 [label="RM <= 6.777\nsquared_error = 0.402\nsamples = 3\nvalue = 30.733", fillcolor="#f0b78e"] ;
299 -> 307 ;
308 [label="B <= 387.085\nsquared_error = 0.04\nsamples = 2\nvalue = 30.3", fillcolor="#f0b890"] ;
307 -> 308 ;
309 [label="squared_error = 0.0\nsamples = 1\nvalue = 30.1", fillcolor="#f0b991"] ;
308 -> 309 ;
310 [label="squared_error = 0.0\nsamples = 1\nvalue = 30.5", fillcolor="#f0b88f"] ;
308 -> 310 ;
311 [label="squared_error = -0.0\nsamples = 1\nvalue = 31.6", fillcolor="#f0b58a"] ;
307 -> 311 ;
312 [label="RAD <= 6.0\nsquared_error = 0.64\nsamples = 2\nvalue = 32.3", fillcolor="#efb387"] ;
298 -> 312 ;
313 [label="squared_error = 0.0\nsamples = 1\nvalue = 33.1", fillcolor="#efb083"] ;
312 -> 313 ;
314 [label="squared_error = 0.0\nsamples = 1\nvalue = 31.5", fillcolor="#f0b58a"] ;
312 -> 314 ;
315 [label="squared_error = -0.0\nsamples = 1\nvalue = 22.8", fillcolor="#f5cdb1"] ;
297 -> 315 ;
316 [label="TAX <= 269.0\nsquared_error = 9.223\nsamples = 31\nvalue = 26.426", fillcolor="#f3c3a1"] ;
292 -> 316 ;
317 [label="PTRATIO <= 18.1\nsquared_error = 3.022\nsamples = 5\nvalue = 29.96", fillcolor="#f1b991"] ;
316 -> 317 ;
318 [label="B <= 395.135\nsquared_error = 0.969\nsamples = 3\nvalue = 31.233", fillcolor="#f0b68c"] ;
317 -> 318 ;
319 [label="RAD <= 3.0\nsquared_error = 0.25\nsamples = 2\nvalue = 30.6", fillcolor="#f0b78e"] ;
318 -> 319 ;
320 [label="squared_error = 0.0\nsamples = 1\nvalue = 31.1", fillcolor="#f0b68c"] ;
319 -> 320 ;
321 [label="squared_error = 0.0\nsamples = 1\nvalue = 30.1", fillcolor="#f0b991"] ;
319 -> 321 ;
322 [label="squared_error = 0.0\nsamples = 1\nvalue = 32.5", fillcolor="#efb286"] ;
318 -> 322 ;
323 [label="RM <= 6.74\nsquared_error = 0.022\nsamples = 2\nvalue = 28.05", fillcolor="#f2be9a"] ;
317 -> 323 ;
324 [label="squared_error = 0.0\nsamples = 1\nvalue = 27.9", fillcolor="#f2bf9a"] ;
323 -> 324 ;
325 [label="squared_error = 0.0\nsamples = 1\nvalue = 28.2", fillcolor="#f2be99"] ;
323 -> 325 ;
326 [label="DIS <= 3.939\nsquared_error = 7.552\nsamples = 26\nvalue = 25.746", fillcolor="#f3c5a4"] ;
316 -> 326 ;
327 [label="RAD <= 4.5\nsquared_error = 8.004\nsamples = 11\nvalue = 27.273", fillcolor="#f2c19d"] ;
326 -> 327 ;
328 [label="B <= 393.84\nsquared_error = 0.469\nsamples = 3\nvalue = 23.367", fillcolor="#f4ccae"] ;
327 -> 328 ;
329 [label="squared_error = 0.0\nsamples = 1\nvalue = 22.4", fillcolor="#f5ceb2"] ;
328 -> 329 ;
330 [label="AGE <= 89.15\nsquared_error = 0.003\nsamples = 2\nvalue = 23.85", fillcolor="#f4caac"] ;
328 -> 330 ;
331 [label="squared_error = 0.0\nsamples = 1\nvalue = 23.8", fillcolor="#f4caac"] ;
330 -> 331 ;
332 [label="squared_error = -0.0\nsamples = 1\nvalue = 23.9", fillcolor="#f4caac"] ;
330 -> 332 ;
333 [label="DIS <= 2.997\nsquared_error = 2.962\nsamples = 8\nvalue = 28.738", fillcolor="#f1bd97"] ;
327 -> 333 ;
334 [label="RM <= 6.754\nsquared_error = 0.187\nsamples = 3\nvalue = 26.9", fillcolor="#f2c29f"] ;
333 -> 334 ;
335 [label="squared_error = 0.0\nsamples = 1\nvalue = 27.5", fillcolor="#f2c09c"] ;
334 -> 335 ;
336 [label="INDUS <= 7.38\nsquared_error = 0.01\nsamples = 2\nvalue = 26.6", fillcolor="#f3c3a0"] ;
334 -> 336 ;
337 [label="squared_error = 0.0\nsamples = 1\nvalue = 26.7", fillcolor="#f2c2a0"] ;
336 -> 337 ;
338 [label="squared_error = -0.0\nsamples = 1\nvalue = 26.5", fillcolor="#f3c3a0"] ;
336 -> 338 ;
339 [label="ZN <= 22.5\nsquared_error = 1.386\nsamples = 5\nvalue = 29.84", fillcolor="#f1b992"] ;
333 -> 339 ;
340 [label="CRIM <= 0.531\nsquared_error = 0.275\nsamples = 4\nvalue = 29.3", fillcolor="#f1bb94"] ;
339 -> 340 ;
341 [label="RM <= 6.594\nsquared_error = 0.082\nsamples = 3\nvalue = 29.033", fillcolor="#f1bc95"] ;
340 -> 341 ;
342 [label="squared_error = 0.0\nsamples = 1\nvalue = 29.4", fillcolor="#f1bb94"] ;
341 -> 342 ;
343 [label="RAD <= 6.5\nsquared_error = 0.023\nsamples = 2\nvalue = 28.85", fillcolor="#f1bc96"] ;
341 -> 343 ;
344 [label="squared_error = 0.0\nsamples = 1\nvalue = 28.7", fillcolor="#f1bd97"] ;
343 -> 344 ;
345 [label="squared_error = -0.0\nsamples = 1\nvalue = 29.0", fillcolor="#f1bc95"] ;
343 -> 345 ;
346 [label="squared_error = 0.0\nsamples = 1\nvalue = 30.1", fillcolor="#f0b991"] ;
340 -> 346 ;
347 [label="squared_error = 0.0\nsamples = 1\nvalue = 32.0", fillcolor="#efb388"] ;
339 -> 347 ;
348 [label="AGE <= 35.2\nsquared_error = 4.258\nsamples = 15\nvalue = 24.627", fillcolor="#f4c8a9"] ;
326 -> 348 ;
349 [label="B <= 395.32\nsquared_error = 1.814\nsamples = 5\nvalue = 26.84", fillcolor="#f2c29f"] ;
348 -> 349 ;
350 [label="NOX <= 0.417\nsquared_error = 0.596\nsamples = 3\nvalue = 25.867", fillcolor="#f3c5a3"] ;
349 -> 350 ;
351 [label="squared_error = 0.0\nsamples = 1\nvalue = 24.8", fillcolor="#f4c8a8"] ;
350 -> 351 ;
352 [label="NOX <= 0.43\nsquared_error = 0.04\nsamples = 2\nvalue = 26.4", fillcolor="#f3c3a1"] ;
350 -> 352 ;
353 [label="squared_error = 0.0\nsamples = 1\nvalue = 26.6", fillcolor="#f3c3a0"] ;
352 -> 353 ;
354 [label="squared_error = 0.0\nsamples = 1\nvalue = 26.2", fillcolor="#f3c4a2"] ;
352 -> 354 ;
355 [label="RM <= 6.703\nsquared_error = 0.09\nsamples = 2\nvalue = 28.3", fillcolor="#f2be98"] ;
349 -> 355 ;
356 [label="squared_error = 0.0\nsamples = 1\nvalue = 28.6", fillcolor="#f1bd97"] ;
355 -> 356 ;
357 [label="squared_error = 0.0\nsamples = 1\nvalue = 28.0", fillcolor="#f2bf9a"] ;
355 -> 357 ;
358 [label="LSTAT <= 10.46\nsquared_error = 1.806\nsamples = 10\nvalue = 23.52", fillcolor="#f4cbae"] ;
348 -> 358 ;
359 [label="AGE <= 42.8\nsquared_error = 0.919\nsamples = 8\nvalue = 24.025", fillcolor="#f4caab"] ;
358 -> 359 ;
360 [label="INDUS <= 5.51\nsquared_error = 0.749\nsamples = 3\nvalue = 23.133", fillcolor="#f5ccaf"] ;
359 -> 360 ;
361 [label="TAX <= 355.5\nsquared_error = 0.16\nsamples = 2\nvalue = 23.7", fillcolor="#f4cbad"] ;
360 -> 361 ;
362 [label="squared_error = 0.0\nsamples = 1\nvalue = 23.3", fillcolor="#f4ccae"] ;
361 -> 362 ;
363 [label="squared_error = -0.0\nsamples = 1\nvalue = 24.1", fillcolor="#f4caab"] ;
361 -> 363 ;
364 [label="squared_error = -0.0\nsamples = 1\nvalue = 22.0", fillcolor="#f5cfb4"] ;
360 -> 364 ;
365 [label="CRIM <= 0.035\nsquared_error = 0.258\nsamples = 5\nvalue = 24.56", fillcolor="#f4c8a9"] ;
359 -> 365 ;
366 [label="NOX <= 0.511\nsquared_error = 0.003\nsamples = 2\nvalue = 23.95", fillcolor="#f4caac"] ;
365 -> 366 ;
367 [label="squared_error = 0.0\nsamples = 1\nvalue = 23.9", fillcolor="#f4caac"] ;
366 -> 367 ;
368 [label="squared_error = 0.0\nsamples = 1\nvalue = 24.0", fillcolor="#f4caab"] ;
366 -> 368 ;
369 [label="NOX <= 0.427\nsquared_error = 0.016\nsamples = 3\nvalue = 24.967", fillcolor="#f3c7a7"] ;
365 -> 369 ;
370 [label="squared_error = 0.0\nsamples = 1\nvalue = 24.8", fillcolor="#f4c8a8"] ;
369 -> 370 ;
371 [label="CRIM <= 0.324\nsquared_error = 0.002\nsamples = 2\nvalue = 25.05", fillcolor="#f3c7a7"] ;
369 -> 371 ;
372 [label="squared_error = 0.0\nsamples = 1\nvalue = 25.0", fillcolor="#f3c7a7"] ;
371 -> 372 ;
373 [label="squared_error = 0.0\nsamples = 1\nvalue = 25.1", fillcolor="#f3c7a7"] ;
371 -> 373 ;
374 [label="LSTAT <= 11.68\nsquared_error = 0.25\nsamples = 2\nvalue = 21.5", fillcolor="#f5d1b6"] ;
358 -> 374 ;
375 [label="squared_error = 0.0\nsamples = 1\nvalue = 22.0", fillcolor="#f5cfb4"] ;
374 -> 375 ;
376 [label="squared_error = 0.0\nsamples = 1\nvalue = 21.0", fillcolor="#f6d2b9"] ;
374 -> 376 ;
377 [label="CRIM <= 6.992\nsquared_error = 17.274\nsamples = 136\nvalue = 14.96", fillcolor="#f9e3d3"] ;
1 -> 377 ;
378 [label="CRIM <= 0.833\nsquared_error = 11.475\nsamples = 83\nvalue = 17.036", fillcolor="#f8ddca"] ;
377 -> 378 ;
379 [label="DIS <= 1.906\nsquared_error = 11.553\nsamples = 44\nvalue = 18.573", fillcolor="#f7d9c3"] ;
378 -> 379 ;
380 [label="B <= 351.67\nsquared_error = 9.337\nsamples = 8\nvalue = 14.125", fillcolor="#fae5d7"] ;
379 -> 380 ;
381 [label="squared_error = 0.0\nsamples = 1\nvalue = 7.0", fillcolor="#fef9f6"] ;
380 -> 381 ;
382 [label="LSTAT <= 17.625\nsquared_error = 2.382\nsamples = 7\nvalue = 15.143", fillcolor="#f9e3d2"] ;
380 -> 382 ;
383 [label="RM <= 6.062\nsquared_error = 0.81\nsamples = 2\nvalue = 17.1", fillcolor="#f8ddca"] ;
382 -> 383 ;
384 [label="squared_error = 0.0\nsamples = 1\nvalue = 16.2", fillcolor="#f9e0ce"] ;
383 -> 384 ;
385 [label="squared_error = -0.0\nsamples = 1\nvalue = 18.0", fillcolor="#f7dbc6"] ;
383 -> 385 ;
386 [label="RM <= 5.735\nsquared_error = 0.866\nsamples = 5\nvalue = 14.36", fillcolor="#fae5d6"] ;
382 -> 386 ;
387 [label="DIS <= 1.789\nsquared_error = 0.062\nsamples = 2\nvalue = 15.45", fillcolor="#f9e2d1"] ;
386 -> 387 ;
388 [label="squared_error = 0.0\nsamples = 1\nvalue = 15.7", fillcolor="#f9e1d0"] ;
387 -> 388 ;
389 [label="squared_error = 0.0\nsamples = 1\nvalue = 15.2", fillcolor="#f9e2d2"] ;
387 -> 389 ;
390 [label="B <= 389.095\nsquared_error = 0.082\nsamples = 3\nvalue = 13.633", fillcolor="#fae7d9"] ;
386 -> 390 ;
391 [label="squared_error = 0.0\nsamples = 1\nvalue = 14.0", fillcolor="#fae6d7"] ;
390 -> 391 ;
392 [label="DIS <= 1.768\nsquared_error = 0.022\nsamples = 2\nvalue = 13.45", fillcolor="#fae7da"] ;
390 -> 392 ;
393 [label="squared_error = 0.0\nsamples = 1\nvalue = 13.3", fillcolor="#fae8da"] ;
392 -> 393 ;
394 [label="squared_error = 0.0\nsamples = 1\nvalue = 13.6", fillcolor="#fae7d9"] ;
392 -> 394 ;
395 [label="CRIM <= 0.147\nsquared_error = 6.673\nsamples = 36\nvalue = 19.561", fillcolor="#f7d6bf"] ;
379 -> 395 ;
396 [label="RM <= 6.013\nsquared_error = 6.718\nsamples = 10\nvalue = 21.38", fillcolor="#f6d1b7"] ;
395 -> 396 ;
397 [label="RM <= 5.681\nsquared_error = 1.974\nsamples = 8\nvalue = 20.288", fillcolor="#f6d4bc"] ;
396 -> 397 ;
398 [label="squared_error = 0.0\nsamples = 1\nvalue = 23.1", fillcolor="#f5ccaf"] ;
397 -> 398 ;
399 [label="LSTAT <= 17.75\nsquared_error = 0.964\nsamples = 7\nvalue = 19.886", fillcolor="#f6d5be"] ;
397 -> 399 ;
400 [label="RM <= 5.876\nsquared_error = 0.554\nsamples = 5\nvalue = 19.44", fillcolor="#f7d7bf"] ;
399 -> 400 ;
401 [label="RAD <= 5.0\nsquared_error = 0.002\nsamples = 2\nvalue = 20.35", fillcolor="#f6d4bb"] ;
400 -> 401 ;
402 [label="squared_error = 0.0\nsamples = 1\nvalue = 20.3", fillcolor="#f6d4bc"] ;
401 -> 402 ;
403 [label="squared_error = -0.0\nsamples = 1\nvalue = 20.4", fillcolor="#f6d4bb"] ;
401 -> 403 ;
404 [label="DIS <= 4.837\nsquared_error = 0.002\nsamples = 3\nvalue = 18.833", fillcolor="#f7d8c2"] ;
400 -> 404 ;
405 [label="squared_error = 0.0\nsamples = 2\nvalue = 18.8", fillcolor="#f7d8c2"] ;
404 -> 405 ;
406 [label="squared_error = 0.0\nsamples = 1\nvalue = 18.9", fillcolor="#f7d8c2"] ;
404 -> 406 ;
407 [label="B <= 387.495\nsquared_error = 0.25\nsamples = 2\nvalue = 21.0", fillcolor="#f6d2b9"] ;
399 -> 407 ;
408 [label="squared_error = 0.0\nsamples = 1\nvalue = 20.5", fillcolor="#f6d4bb"] ;
407 -> 408 ;
409 [label="squared_error = 0.0\nsamples = 1\nvalue = 21.5", fillcolor="#f5d1b6"] ;
407 -> 409 ;
410 [label="B <= 389.11\nsquared_error = 1.822\nsamples = 2\nvalue = 25.75", fillcolor="#f3c5a4"] ;
396 -> 410 ;
411 [label="squared_error = 0.0\nsamples = 1\nvalue = 24.4", fillcolor="#f4c9aa"] ;
410 -> 411 ;
412 [label="squared_error = 0.0\nsamples = 1\nvalue = 27.1", fillcolor="#f2c19e"] ;
410 -> 412 ;
413 [label="AGE <= 45.4\nsquared_error = 4.894\nsamples = 26\nvalue = 18.862", fillcolor="#f7d8c2"] ;
395 -> 413 ;
414 [label="TAX <= 334.0\nsquared_error = 0.09\nsamples = 2\nvalue = 23.4", fillcolor="#f4cbae"] ;
413 -> 414 ;
415 [label="squared_error = 0.0\nsamples = 1\nvalue = 23.7", fillcolor="#f4cbad"] ;
414 -> 415 ;
416 [label="squared_error = 0.0\nsamples = 1\nvalue = 23.1", fillcolor="#f5ccaf"] ;
414 -> 416 ;
417 [label="INDUS <= 8.35\nsquared_error = 3.435\nsamples = 24\nvalue = 18.483", fillcolor="#f7d9c4"] ;
413 -> 417 ;
418 [label="AGE <= 88.1\nsquared_error = 2.22\nsamples = 9\nvalue = 17.156", fillcolor="#f8ddca"] ;
417 -> 418 ;
419 [label="CRIM <= 0.225\nsquared_error = 1.014\nsamples = 5\nvalue = 18.18", fillcolor="#f7dac5"] ;
418 -> 419 ;
420 [label="DIS <= 6.34\nsquared_error = 0.136\nsamples = 3\nvalue = 18.933", fillcolor="#f7d8c2"] ;
419 -> 420 ;
421 [label="squared_error = 0.0\nsamples = 1\nvalue = 19.4", fillcolor="#f7d7c0"] ;
420 -> 421 ;
422 [label="INDUS <= 6.865\nsquared_error = 0.04\nsamples = 2\nvalue = 18.7", fillcolor="#f7d9c3"] ;
420 -> 422 ;
423 [label="squared_error = 0.0\nsamples = 1\nvalue = 18.5", fillcolor="#f7d9c4"] ;
422 -> 423 ;
424 [label="squared_error = 0.0\nsamples = 1\nvalue = 18.9", fillcolor="#f7d8c2"] ;
422 -> 424 ;
425 [label="AGE <= 83.6\nsquared_error = 0.203\nsamples = 2\nvalue = 17.05", fillcolor="#f8ddca"] ;
419 -> 425 ;
426 [label="squared_error = 0.0\nsamples = 1\nvalue = 17.5", fillcolor="#f8dcc8"] ;
425 -> 426 ;
427 [label="squared_error = 0.0\nsamples = 1\nvalue = 16.6", fillcolor="#f8dfcc"] ;
425 -> 427 ;
428 [label="TAX <= 258.5\nsquared_error = 0.777\nsamples = 4\nvalue = 15.875", fillcolor="#f9e1cf"] ;
418 -> 428 ;
429 [label="squared_error = 0.0\nsamples = 1\nvalue = 14.4", fillcolor="#fae5d6"] ;
428 -> 429 ;
430 [label="DIS <= 6.45\nsquared_error = 0.069\nsamples = 3\nvalue = 16.367", fillcolor="#f8dfcd"] ;
428 -> 430 ;
431 [label="LSTAT <= 22.37\nsquared_error = 0.002\nsamples = 2\nvalue = 16.55", fillcolor="#f8dfcc"] ;
430 -> 431 ;
432 [label="squared_error = 0.0\nsamples = 1\nvalue = 16.6", fillcolor="#f8dfcc"] ;
431 -> 432 ;
433 [label="squared_error = 0.0\nsamples = 1\nvalue = 16.5", fillcolor="#f8dfcc"] ;
431 -> 433 ;
434 [label="squared_error = 0.0\nsamples = 1\nvalue = 16.0", fillcolor="#f9e0cf"] ;
430 -> 434 ;
435 [label="NOX <= 0.504\nsquared_error = 2.471\nsamples = 15\nvalue = 19.28", fillcolor="#f7d7c0"] ;
417 -> 435 ;
436 [label="LSTAT <= 20.575\nsquared_error = 1.087\nsamples = 3\nvalue = 21.4", fillcolor="#f6d1b7"] ;
435 -> 436 ;
437 [label="AGE <= 82.4\nsquared_error = 0.16\nsamples = 2\nvalue = 22.1", fillcolor="#f5cfb4"] ;
436 -> 437 ;
438 [label="squared_error = 0.0\nsamples = 1\nvalue = 22.5", fillcolor="#f5ceb2"] ;
437 -> 438 ;
439 [label="squared_error = -0.0\nsamples = 1\nvalue = 21.7", fillcolor="#f5d0b6"] ;
437 -> 439 ;
440 [label="squared_error = -0.0\nsamples = 1\nvalue = 20.0", fillcolor="#f6d5bd"] ;
436 -> 440 ;
441 [label="LSTAT <= 14.92\nsquared_error = 1.413\nsamples = 12\nvalue = 18.75", fillcolor="#f7d8c2"] ;
435 -> 441 ;
442 [label="squared_error = 0.0\nsamples = 1\nvalue = 21.4", fillcolor="#f6d1b7"] ;
441 -> 442 ;
443 [label="B <= 390.965\nsquared_error = 0.844\nsamples = 11\nvalue = 18.509", fillcolor="#f7d9c4"] ;
441 -> 443 ;
444 [label="RM <= 5.839\nsquared_error = 0.187\nsamples = 4\nvalue = 17.725", fillcolor="#f8dbc7"] ;
443 -> 444 ;
445 [label="squared_error = 0.0\nsamples = 1\nvalue = 18.4", fillcolor="#f7d9c4"] ;
444 -> 445 ;
446 [label="NOX <= 0.562\nsquared_error = 0.047\nsamples = 3\nvalue = 17.5", fillcolor="#f8dcc8"] ;
444 -> 446 ;
447 [label="squared_error = 0.0\nsamples = 1\nvalue = 17.8", fillcolor="#f8dbc7"] ;
446 -> 447 ;
448 [label="LSTAT <= 21.155\nsquared_error = 0.002\nsamples = 2\nvalue = 17.35", fillcolor="#f8dcc9"] ;
446 -> 448 ;
449 [label="squared_error = 0.0\nsamples = 1\nvalue = 17.4", fillcolor="#f8dcc8"] ;
448 -> 449 ;
450 [label="squared_error = -0.0\nsamples = 1\nvalue = 17.3", fillcolor="#f8ddc9"] ;
448 -> 450 ;
451 [label="LSTAT <= 15.325\nsquared_error = 0.668\nsamples = 7\nvalue = 18.957", fillcolor="#f7d8c2"] ;
443 -> 451 ;
452 [label="squared_error = 0.0\nsamples = 1\nvalue = 17.5", fillcolor="#f8dcc8"] ;
451 -> 452 ;
453 [label="AGE <= 93.65\nsquared_error = 0.367\nsamples = 6\nvalue = 19.2", fillcolor="#f7d7c1"] ;
451 -> 453 ;
454 [label="AGE <= 82.05\nsquared_error = 0.025\nsamples = 4\nvalue = 19.6", fillcolor="#f7d6bf"] ;
453 -> 454 ;
455 [label="AGE <= 72.3\nsquared_error = 0.002\nsamples = 2\nvalue = 19.75", fillcolor="#f6d6be"] ;
454 -> 455 ;
456 [label="squared_error = 0.0\nsamples = 1\nvalue = 19.8", fillcolor="#f6d6be"] ;
455 -> 456 ;
457 [label="squared_error = 0.0\nsamples = 1\nvalue = 19.7", fillcolor="#f7d6be"] ;
455 -> 457 ;
458 [label="AGE <= 91.55\nsquared_error = 0.003\nsamples = 2\nvalue = 19.45", fillcolor="#f7d7bf"] ;
454 -> 458 ;
459 [label="squared_error = 0.0\nsamples = 1\nvalue = 19.4", fillcolor="#f7d7c0"] ;
458 -> 459 ;
460 [label="squared_error = -0.0\nsamples = 1\nvalue = 19.5", fillcolor="#f7d6bf"] ;
458 -> 460 ;
461 [label="TAX <= 434.5\nsquared_error = 0.09\nsamples = 2\nvalue = 18.4", fillcolor="#f7d9c4"] ;
453 -> 461 ;
462 [label="squared_error = 0.0\nsamples = 1\nvalue = 18.7", fillcolor="#f7d9c3"] ;
461 -> 462 ;
463 [label="squared_error = 0.0\nsamples = 1\nvalue = 18.1", fillcolor="#f7dac5"] ;
461 -> 463 ;
464 [label="AGE <= 85.45\nsquared_error = 5.717\nsamples = 39\nvalue = 15.303", fillcolor="#f9e2d2"] ;
378 -> 464 ;
465 [label="CRIM <= 3.942\nsquared_error = 10.527\nsamples = 6\nvalue = 18.5", fillcolor="#f7d9c4"] ;
464 -> 465 ;
466 [label="INDUS <= 13.86\nsquared_error = 1.44\nsamples = 2\nvalue = 14.4", fillcolor="#fae5d6"] ;
465 -> 466 ;
467 [label="squared_error = 0.0\nsamples = 1\nvalue = 13.2", fillcolor="#fae8db"] ;
466 -> 467 ;
468 [label="squared_error = 0.0\nsamples = 1\nvalue = 15.6", fillcolor="#f9e1d0"] ;
466 -> 468 ;
469 [label="LSTAT <= 17.525\nsquared_error = 2.462\nsamples = 4\nvalue = 20.55", fillcolor="#f6d3bb"] ;
465 -> 469 ;
470 [label="AGE <= 81.9\nsquared_error = 0.162\nsamples = 3\nvalue = 19.667", fillcolor="#f7d6be"] ;
469 -> 470 ;
471 [label="squared_error = 0.0\nsamples = 1\nvalue = 19.1", fillcolor="#f7d8c1"] ;
470 -> 471 ;
472 [label="NOX <= 0.646\nsquared_error = 0.002\nsamples = 2\nvalue = 19.95", fillcolor="#f6d5bd"] ;
470 -> 472 ;
473 [label="squared_error = 0.0\nsamples = 1\nvalue = 19.9", fillcolor="#f6d5bd"] ;
472 -> 473 ;
474 [label="squared_error = 0.0\nsamples = 1\nvalue = 20.0", fillcolor="#f6d5bd"] ;
472 -> 474 ;
475 [label="squared_error = -0.0\nsamples = 1\nvalue = 23.2", fillcolor="#f4ccaf"] ;
469 -> 475 ;
476 [label="LSTAT <= 17.375\nsquared_error = 2.646\nsamples = 33\nvalue = 14.721", fillcolor="#f9e4d4"] ;
464 -> 476 ;
477 [label="B <= 313.7\nsquared_error = 2.179\nsamples = 11\nvalue = 15.864", fillcolor="#f9e1cf"] ;
476 -> 477 ;
478 [label="CRIM <= 2.301\nsquared_error = 0.87\nsamples = 5\nvalue = 14.68", fillcolor="#f9e4d4"] ;
477 -> 478 ;
479 [label="RM <= 5.902\nsquared_error = 0.142\nsamples = 3\nvalue = 15.333", fillcolor="#f9e2d2"] ;
478 -> 479 ;
480 [label="squared_error = 0.0\nsamples = 2\nvalue = 15.6", fillcolor="#f9e1d0"] ;
479 -> 480 ;
481 [label="squared_error = 0.0\nsamples = 1\nvalue = 14.8", fillcolor="#f9e4d4"] ;
479 -> 481 ;
482 [label="NOX <= 0.792\nsquared_error = 0.36\nsamples = 2\nvalue = 13.7", fillcolor="#fae7d9"] ;
478 -> 482 ;
483 [label="squared_error = 0.0\nsamples = 1\nvalue = 14.3", fillcolor="#fae5d6"] ;
482 -> 483 ;
484 [label="squared_error = 0.0\nsamples = 1\nvalue = 13.1", fillcolor="#fae8db"] ;
482 -> 484 ;
485 [label="LSTAT <= 16.85\nsquared_error = 1.129\nsamples = 6\nvalue = 16.85", fillcolor="#f8decb"] ;
477 -> 485 ;
486 [label="DIS <= 1.955\nsquared_error = 0.397\nsamples = 4\nvalue = 17.475", fillcolor="#f8dcc8"] ;
485 -> 486 ;
487 [label="NOX <= 0.82\nsquared_error = 0.01\nsamples = 2\nvalue = 16.9", fillcolor="#f8decb"] ;
486 -> 487 ;
488 [label="squared_error = 0.0\nsamples = 1\nvalue = 16.8", fillcolor="#f8decb"] ;
487 -> 488 ;
489 [label="squared_error = 0.0\nsamples = 1\nvalue = 17.0", fillcolor="#f8ddca"] ;
487 -> 489 ;
490 [label="NOX <= 0.727\nsquared_error = 0.123\nsamples = 2\nvalue = 18.05", fillcolor="#f7dac6"] ;
486 -> 490 ;
491 [label="squared_error = 0.0\nsamples = 1\nvalue = 17.7", fillcolor="#f8dbc7"] ;
490 -> 491 ;
492 [label="squared_error = 0.0\nsamples = 1\nvalue = 18.4", fillcolor="#f7d9c4"] ;
490 -> 492 ;
493 [label="AGE <= 94.4\nsquared_error = 0.25\nsamples = 2\nvalue = 15.6", fillcolor="#f9e1d0"] ;
485 -> 493 ;
494 [label="squared_error = 0.0\nsamples = 1\nvalue = 16.1", fillcolor="#f9e0ce"] ;
493 -> 494 ;
495 [label="squared_error = -0.0\nsamples = 1\nvalue = 15.1", fillcolor="#f9e3d3"] ;
493 -> 495 ;
496 [label="RM <= 4.914\nsquared_error = 1.901\nsamples = 22\nvalue = 14.15", fillcolor="#fae5d7"] ;
476 -> 496 ;
497 [label="squared_error = 0.0\nsamples = 1\nvalue = 11.8", fillcolor="#fbece1"] ;
496 -> 497 ;
498 [label="DIS <= 2.508\nsquared_error = 1.716\nsamples = 21\nvalue = 14.262", fillcolor="#fae5d6"] ;
496 -> 498 ;
499 [label="CRIM <= 5.657\nsquared_error = 1.782\nsamples = 15\nvalue = 14.627", fillcolor="#f9e4d5"] ;
498 -> 499 ;
500 [label="AGE <= 94.25\nsquared_error = 1.555\nsamples = 11\nvalue = 15.027", fillcolor="#f9e3d3"] ;
499 -> 500 ;
501 [label="DIS <= 2.371\nsquared_error = 2.407\nsamples = 3\nvalue = 16.2", fillcolor="#f9e0ce"] ;
500 -> 501 ;
502 [label="AGE <= 93.7\nsquared_error = 0.303\nsamples = 2\nvalue = 17.25", fillcolor="#f8ddc9"] ;
501 -> 502 ;
503 [label="squared_error = 0.0\nsamples = 1\nvalue = 16.7", fillcolor="#f8decc"] ;
502 -> 503 ;
504 [label="squared_error = 0.0\nsamples = 1\nvalue = 17.8", fillcolor="#f8dbc7"] ;
502 -> 504 ;
505 [label="squared_error = -0.0\nsamples = 1\nvalue = 14.1", fillcolor="#fae6d7"] ;
501 -> 505 ;
506 [label="LSTAT <= 26.62\nsquared_error = 0.526\nsamples = 8\nvalue = 14.588", fillcolor="#f9e4d5"] ;
500 -> 506 ;
507 [label="RAD <= 4.5\nsquared_error = 0.247\nsamples = 4\nvalue = 15.125", fillcolor="#f9e3d2"] ;
506 -> 507 ;
508 [label="squared_error = 0.0\nsamples = 1\nvalue = 14.3", fillcolor="#fae5d6"] ;
507 -> 508 ;
509 [label="INDUS <= 18.84\nsquared_error = 0.027\nsamples = 3\nvalue = 15.4", fillcolor="#f9e2d1"] ;
507 -> 509 ;
510 [label="squared_error = 0.0\nsamples = 1\nvalue = 15.2", fillcolor="#f9e2d2"] ;
509 -> 510 ;
511 [label="LSTAT <= 23.935\nsquared_error = 0.01\nsamples = 2\nvalue = 15.5", fillcolor="#f9e2d1"] ;
509 -> 511 ;
512 [label="squared_error = 0.0\nsamples = 1\nvalue = 15.4", fillcolor="#f9e2d1"] ;
511 -> 512 ;
513 [label="squared_error = -0.0\nsamples = 1\nvalue = 15.6", fillcolor="#f9e1d0"] ;
511 -> 513 ;
514 [label="LSTAT <= 28.665\nsquared_error = 0.227\nsamples = 4\nvalue = 14.05", fillcolor="#fae6d7"] ;
506 -> 514 ;
515 [label="B <= 284.905\nsquared_error = 0.04\nsamples = 2\nvalue = 13.6", fillcolor="#fae7d9"] ;
514 -> 515 ;
516 [label="squared_error = 0.0\nsamples = 1\nvalue = 13.8", fillcolor="#fae6d8"] ;
515 -> 516 ;
517 [label="squared_error = -0.0\nsamples = 1\nvalue = 13.4", fillcolor="#fae7da"] ;
515 -> 517 ;
518 [label="NOX <= 0.748\nsquared_error = 0.01\nsamples = 2\nvalue = 14.5", fillcolor="#fae4d5"] ;
514 -> 518 ;
519 [label="squared_error = 0.0\nsamples = 1\nvalue = 14.4", fillcolor="#fae5d6"] ;
518 -> 519 ;
520 [label="squared_error = -0.0\nsamples = 1\nvalue = 14.6", fillcolor="#f9e4d5"] ;
518 -> 520 ;
521 [label="NOX <= 0.727\nsquared_error = 0.752\nsamples = 4\nvalue = 13.525", fillcolor="#fae7d9"] ;
499 -> 521 ;
522 [label="CRIM <= 6.133\nsquared_error = 0.162\nsamples = 3\nvalue = 13.067", fillcolor="#fae8dc"] ;
521 -> 522 ;
523 [label="squared_error = 0.0\nsamples = 1\nvalue = 12.5", fillcolor="#fbeade"] ;
522 -> 523 ;
524 [label="CRIM <= 6.555\nsquared_error = 0.002\nsamples = 2\nvalue = 13.35", fillcolor="#fae8da"] ;
522 -> 524 ;
525 [label="squared_error = 0.0\nsamples = 1\nvalue = 13.3", fillcolor="#fae8da"] ;
524 -> 525 ;
526 [label="squared_error = -0.0\nsamples = 1\nvalue = 13.4", fillcolor="#fae7da"] ;
524 -> 526 ;
527 [label="squared_error = -0.0\nsamples = 1\nvalue = 14.9", fillcolor="#f9e3d3"] ;
521 -> 527 ;
528 [label="AGE <= 95.95\nsquared_error = 0.386\nsamples = 6\nvalue = 13.35", fillcolor="#fae8da"] ;
498 -> 528 ;
529 [label="AGE <= 94.55\nsquared_error = 0.036\nsamples = 3\nvalue = 12.833", fillcolor="#fae9dd"] ;
528 -> 529 ;
530 [label="squared_error = 0.0\nsamples = 2\nvalue = 12.7", fillcolor="#fbe9dd"] ;
529 -> 530 ;
531 [label="squared_error = -0.0\nsamples = 1\nvalue = 13.1", fillcolor="#fae8db"] ;
529 -> 531 ;
532 [label="AGE <= 99.05\nsquared_error = 0.202\nsamples = 3\nvalue = 13.867", fillcolor="#fae6d8"] ;
528 -> 532 ;
533 [label="RM <= 5.833\nsquared_error = 0.002\nsamples = 2\nvalue = 13.55", fillcolor="#fae7d9"] ;
532 -> 533 ;
534 [label="squared_error = 0.0\nsamples = 1\nvalue = 13.6", fillcolor="#fae7d9"] ;
533 -> 534 ;
535 [label="squared_error = -0.0\nsamples = 1\nvalue = 13.5", fillcolor="#fae7da"] ;
533 -> 535 ;
536 [label="squared_error = 0.0\nsamples = 1\nvalue = 14.5", fillcolor="#fae4d5"] ;
532 -> 536 ;
537 [label="LSTAT <= 24.03\nsquared_error = 9.038\nsamples = 53\nvalue = 11.709", fillcolor="#fbece1"] ;
377 -> 537 ;
538 [label="DIS <= 2.012\nsquared_error = 4.021\nsamples = 33\nvalue = 12.845", fillcolor="#fae9dc"] ;
537 -> 538 ;
539 [label="CRIM <= 10.319\nsquared_error = 2.886\nsamples = 20\nvalue = 11.945", fillcolor="#fbece0"] ;
538 -> 539 ;
540 [label="LSTAT <= 19.385\nsquared_error = 3.344\nsamples = 10\nvalue = 12.57", fillcolor="#fbeade"] ;
539 -> 540 ;
541 [label="DIS <= 1.927\nsquared_error = 0.697\nsamples = 4\nvalue = 14.125", fillcolor="#fae5d7"] ;
540 -> 541 ;
542 [label="CRIM <= 8.681\nsquared_error = 0.207\nsamples = 3\nvalue = 13.7", fillcolor="#fae7d9"] ;
541 -> 542 ;
543 [label="NOX <= 0.706\nsquared_error = 0.04\nsamples = 2\nvalue = 14.0", fillcolor="#fae6d7"] ;
542 -> 543 ;
544 [label="squared_error = 0.0\nsamples = 1\nvalue = 13.8", fillcolor="#fae6d8"] ;
543 -> 544 ;
545 [label="squared_error = 0.0\nsamples = 1\nvalue = 14.2", fillcolor="#fae5d7"] ;
543 -> 545 ;
546 [label="squared_error = -0.0\nsamples = 1\nvalue = 13.1", fillcolor="#fae8db"] ;
542 -> 546 ;
547 [label="squared_error = 0.0\nsamples = 1\nvalue = 15.4", fillcolor="#f9e2d1"] ;
541 -> 547 ;
548 [label="LSTAT <= 20.115\nsquared_error = 2.422\nsamples = 6\nvalue = 11.533", fillcolor="#fbede2"] ;
540 -> 548 ;
549 [label="squared_error = 0.0\nsamples = 1\nvalue = 8.5", fillcolor="#fdf5f0"] ;
548 -> 549 ;
550 [label="CRIM <= 8.771\nsquared_error = 0.698\nsamples = 5\nvalue = 12.14", fillcolor="#fbebe0"] ;
548 -> 550 ;
551 [label="NOX <= 0.69\nsquared_error = 0.062\nsamples = 2\nvalue = 11.25", fillcolor="#fbeee4"] ;
550 -> 551 ;
552 [label="squared_error = 0.0\nsamples = 1\nvalue = 11.0", fillcolor="#fceee5"] ;
551 -> 552 ;
553 [label="squared_error = 0.0\nsamples = 1\nvalue = 11.5", fillcolor="#fbede2"] ;
551 -> 553 ;
554 [label="AGE <= 99.4\nsquared_error = 0.242\nsamples = 3\nvalue = 12.733", fillcolor="#fbe9dd"] ;
550 -> 554 ;
555 [label="AGE <= 96.35\nsquared_error = 0.062\nsamples = 2\nvalue = 13.05", fillcolor="#fae8dc"] ;
554 -> 555 ;
556 [label="squared_error = 0.0\nsamples = 1\nvalue = 12.8", fillcolor="#fae9dd"] ;
555 -> 556 ;
557 [label="squared_error = -0.0\nsamples = 1\nvalue = 13.3", fillcolor="#fae8da"] ;
555 -> 557 ;
558 [label="squared_error = 0.0\nsamples = 1\nvalue = 12.1", fillcolor="#fbebe0"] ;
554 -> 558 ;
559 [label="LSTAT <= 22.675\nsquared_error = 1.648\nsamples = 10\nvalue = 11.32", fillcolor="#fbede3"] ;
539 -> 559 ;
560 [label="DIS <= 1.934\nsquared_error = 0.198\nsamples = 6\nvalue = 10.417", fillcolor="#fcf0e7"] ;
559 -> 560 ;
561 [label="DIS <= 1.468\nsquared_error = 0.078\nsamples = 5\nvalue = 10.58", fillcolor="#fcefe6"] ;
560 -> 561 ;
562 [label="DIS <= 1.401\nsquared_error = 0.01\nsamples = 2\nvalue = 10.3", fillcolor="#fcf0e8"] ;
561 -> 562 ;
563 [label="squared_error = 0.0\nsamples = 1\nvalue = 10.2", fillcolor="#fcf0e8"] ;
562 -> 563 ;
564 [label="squared_error = -0.0\nsamples = 1\nvalue = 10.4", fillcolor="#fcf0e7"] ;
562 -> 564 ;
565 [label="DIS <= 1.865\nsquared_error = 0.036\nsamples = 3\nvalue = 10.767", fillcolor="#fcefe6"] ;
561 -> 565 ;
566 [label="CRIM <= 26.768\nsquared_error = 0.0\nsamples = 2\nvalue = 10.9", fillcolor="#fceee5"] ;
565 -> 566 ;
567 [label="squared_error = 0.0\nsamples = 1\nvalue = 10.9", fillcolor="#fceee5"] ;
566 -> 567 ;
568 [label="squared_error = 0.0\nsamples = 1\nvalue = 10.9", fillcolor="#fceee5"] ;
566 -> 568 ;
569 [label="squared_error = 0.0\nsamples = 1\nvalue = 10.5", fillcolor="#fcf0e7"] ;
565 -> 569 ;
570 [label="squared_error = -0.0\nsamples = 1\nvalue = 9.6", fillcolor="#fcf2eb"] ;
560 -> 570 ;
571 [label="AGE <= 94.05\nsquared_error = 0.762\nsamples = 4\nvalue = 12.675", fillcolor="#fbeadd"] ;
559 -> 571 ;
572 [label="squared_error = 0.0\nsamples = 1\nvalue = 13.9", fillcolor="#fae6d8"] ;
571 -> 572 ;
573 [label="B <= 383.56\nsquared_error = 0.349\nsamples = 3\nvalue = 12.267", fillcolor="#fbebdf"] ;
571 -> 573 ;
574 [label="NOX <= 0.699\nsquared_error = 0.003\nsamples = 2\nvalue = 11.85", fillcolor="#fbece1"] ;
573 -> 574 ;
575 [label="squared_error = 0.0\nsamples = 1\nvalue = 11.9", fillcolor="#fbece1"] ;
574 -> 575 ;
576 [label="squared_error = -0.0\nsamples = 1\nvalue = 11.8", fillcolor="#fbece1"] ;
574 -> 576 ;
577 [label="squared_error = -0.0\nsamples = 1\nvalue = 13.1", fillcolor="#fae8db"] ;
573 -> 577 ;
578 [label="NOX <= 0.755\nsquared_error = 2.601\nsamples = 13\nvalue = 14.231", fillcolor="#fae5d6"] ;
538 -> 578 ;
579 [label="LSTAT <= 15.7\nsquared_error = 1.667\nsamples = 12\nvalue = 13.933", fillcolor="#fae6d8"] ;
578 -> 579 ;
580 [label="squared_error = 0.0\nsamples = 1\nvalue = 11.7", fillcolor="#fbece2"] ;
579 -> 580 ;
581 [label="DIS <= 2.077\nsquared_error = 1.324\nsamples = 11\nvalue = 14.136", fillcolor="#fae5d7"] ;
579 -> 581 ;
582 [label="B <= 234.705\nsquared_error = 2.407\nsamples = 3\nvalue = 15.0", fillcolor="#f9e3d3"] ;
581 -> 582 ;
583 [label="NOX <= 0.599\nsquared_error = 0.303\nsamples = 2\nvalue = 13.95", fillcolor="#fae6d8"] ;
582 -> 583 ;
584 [label="squared_error = 0.0\nsamples = 1\nvalue = 14.5", fillcolor="#fae4d5"] ;
583 -> 584 ;
585 [label="squared_error = 0.0\nsamples = 1\nvalue = 13.4", fillcolor="#fae7da"] ;
583 -> 585 ;
586 [label="squared_error = 0.0\nsamples = 1\nvalue = 17.1", fillcolor="#f8ddca"] ;
582 -> 586 ;
587 [label="NOX <= 0.727\nsquared_error = 0.534\nsamples = 8\nvalue = 13.812", fillcolor="#fae6d8"] ;
581 -> 587 ;
588 [label="CRIM <= 7.639\nsquared_error = 0.365\nsamples = 6\nvalue = 14.083", fillcolor="#fae6d7"] ;
587 -> 588 ;
589 [label="squared_error = 0.0\nsamples = 1\nvalue = 13.0", fillcolor="#fae9dc"] ;
588 -> 589 ;
590 [label="LSTAT <= 18.08\nsquared_error = 0.156\nsamples = 5\nvalue = 14.3", fillcolor="#fae5d6"] ;
588 -> 590 ;
591 [label="AGE <= 90.2\nsquared_error = 0.023\nsamples = 2\nvalue = 14.75", fillcolor="#f9e4d4"] ;
590 -> 591 ;
592 [label="squared_error = 0.0\nsamples = 1\nvalue = 14.9", fillcolor="#f9e3d3"] ;
591 -> 592 ;
593 [label="squared_error = 0.0\nsamples = 1\nvalue = 14.6", fillcolor="#f9e4d5"] ;
591 -> 593 ;
594 [label="DIS <= 2.346\nsquared_error = 0.02\nsamples = 3\nvalue = 14.0", fillcolor="#fae6d7"] ;
590 -> 594 ;
595 [label="squared_error = 0.0\nsamples = 2\nvalue = 14.1", fillcolor="#fae6d7"] ;
594 -> 595 ;
596 [label="squared_error = 0.0\nsamples = 1\nvalue = 13.8", fillcolor="#fae6d8"] ;
594 -> 596 ;
597 [label="AGE <= 95.6\nsquared_error = 0.16\nsamples = 2\nvalue = 13.0", fillcolor="#fae9dc"] ;
587 -> 597 ;
598 [label="squared_error = 0.0\nsamples = 1\nvalue = 13.4", fillcolor="#fae7da"] ;
597 -> 598 ;
599 [label="squared_error = 0.0\nsamples = 1\nvalue = 12.6", fillcolor="#fbeade"] ;
597 -> 599 ;
600 [label="squared_error = 0.0\nsamples = 1\nvalue = 17.8", fillcolor="#f8dbc7"] ;
578 -> 600 ;
601 [label="NOX <= 0.674\nsquared_error = 11.673\nsamples = 20\nvalue = 9.835", fillcolor="#fcf1ea"] ;
537 -> 601 ;
602 [label="NOX <= 0.632\nsquared_error = 3.577\nsamples = 4\nvalue = 15.675", fillcolor="#f9e1d0"] ;
601 -> 602 ;
603 [label="CRIM <= 13.107\nsquared_error = 0.123\nsamples = 2\nvalue = 17.55", fillcolor="#f8dcc8"] ;
602 -> 603 ;
604 [label="squared_error = 0.0\nsamples = 1\nvalue = 17.2", fillcolor="#f8ddc9"] ;
603 -> 604 ;
605 [label="squared_error = 0.0\nsamples = 1\nvalue = 17.9", fillcolor="#f8dbc6"] ;
603 -> 605 ;
606 [label="LSTAT <= 36.37\nsquared_error = 0.0\nsamples = 2\nvalue = 13.8", fillcolor="#fae6d8"] ;
602 -> 606 ;
607 [label="squared_error = 0.0\nsamples = 1\nvalue = 13.8", fillcolor="#fae6d8"] ;
606 -> 607 ;
608 [label="squared_error = 0.0\nsamples = 1\nvalue = 13.8", fillcolor="#fae6d8"] ;
606 -> 608 ;
609 [label="CRIM <= 8.666\nsquared_error = 3.039\nsamples = 16\nvalue = 8.375", fillcolor="#fdf6f0"] ;
601 -> 609 ;
610 [label="squared_error = 0.0\nsamples = 1\nvalue = 12.3", fillcolor="#fbebdf"] ;
609 -> 610 ;
611 [label="CRIM <= 31.373\nsquared_error = 2.146\nsamples = 15\nvalue = 8.113", fillcolor="#fdf6f1"] ;
609 -> 611 ;
612 [label="RM <= 4.94\nsquared_error = 1.53\nsamples = 13\nvalue = 8.438", fillcolor="#fdf5f0"] ;
611 -> 612 ;
613 [label="B <= 329.375\nsquared_error = 0.549\nsamples = 3\nvalue = 9.833", fillcolor="#fcf1ea"] ;
612 -> 613 ;
614 [label="squared_error = 0.0\nsamples = 1\nvalue = 8.8", fillcolor="#fdf4ee"] ;
613 -> 614 ;
615 [label="CRIM <= 19.364\nsquared_error = 0.023\nsamples = 2\nvalue = 10.35", fillcolor="#fcf0e7"] ;
613 -> 615 ;
616 [label="squared_error = 0.0\nsamples = 1\nvalue = 10.2", fillcolor="#fcf0e8"] ;
615 -> 616 ;
617 [label="squared_error = 0.0\nsamples = 1\nvalue = 10.5", fillcolor="#fcf0e7"] ;
615 -> 617 ;
618 [label="LSTAT <= 25.735\nsquared_error = 1.066\nsamples = 10\nvalue = 8.02", fillcolor="#fdf7f2"] ;
612 -> 618 ;
619 [label="CRIM <= 13.719\nsquared_error = 0.382\nsamples = 3\nvalue = 9.167", fillcolor="#fdf3ed"] ;
618 -> 619 ;
620 [label="NOX <= 0.69\nsquared_error = 0.01\nsamples = 2\nvalue = 9.6", fillcolor="#fcf2eb"] ;
619 -> 620 ;
621 [label="squared_error = 0.0\nsamples = 1\nvalue = 9.5", fillcolor="#fcf2eb"] ;
620 -> 621 ;
622 [label="squared_error = -0.0\nsamples = 1\nvalue = 9.7", fillcolor="#fcf2ea"] ;
620 -> 622 ;
623 [label="squared_error = 0.0\nsamples = 1\nvalue = 8.3", fillcolor="#fdf6f0"] ;
619 -> 623 ;
624 [label="NOX <= 0.72\nsquared_error = 0.553\nsamples = 7\nvalue = 7.529", fillcolor="#fef8f4"] ;
618 -> 624 ;
625 [label="AGE <= 83.65\nsquared_error = 0.182\nsamples = 5\nvalue = 7.12", fillcolor="#fef9f6"] ;
624 -> 625 ;
626 [label="squared_error = 0.0\nsamples = 1\nvalue = 6.3", fillcolor="#fefbf9"] ;
625 -> 626 ;
627 [label="AGE <= 94.45\nsquared_error = 0.017\nsamples = 4\nvalue = 7.325", fillcolor="#fef8f5"] ;
625 -> 627 ;
628 [label="LSTAT <= 28.89\nsquared_error = 0.002\nsamples = 2\nvalue = 7.45", fillcolor="#fef8f4"] ;
627 -> 628 ;
629 [label="squared_error = 0.0\nsamples = 1\nvalue = 7.5", fillcolor="#fef8f4"] ;
628 -> 629 ;
630 [label="squared_error = 0.0\nsamples = 1\nvalue = 7.4", fillcolor="#fef8f4"] ;
628 -> 630 ;
631 [label="squared_error = -0.0\nsamples = 2\nvalue = 7.2", fillcolor="#fef9f5"] ;
627 -> 631 ;
632 [label="LSTAT <= 30.235\nsquared_error = 0.023\nsamples = 2\nvalue = 8.55", fillcolor="#fdf5ef"] ;
624 -> 632 ;
633 [label="squared_error = 0.0\nsamples = 1\nvalue = 8.7", fillcolor="#fdf5ef"] ;
632 -> 633 ;
634 [label="squared_error = -0.0\nsamples = 1\nvalue = 8.4", fillcolor="#fdf5f0"] ;
632 -> 634 ;
635 [label="RM <= 4.986\nsquared_error = 1.0\nsamples = 2\nvalue = 6.0", fillcolor="#fefcfb"] ;
611 -> 635 ;
636 [label="squared_error = 0.0\nsamples = 1\nvalue = 7.0", fillcolor="#fef9f6"] ;
635 -> 636 ;
637 [label="squared_error = 0.0\nsamples = 1\nvalue = 5.0", fillcolor="#ffffff"] ;
635 -> 637 ;
638 [label="RM <= 7.437\nsquared_error = 50.601\nsamples = 49\nvalue = 37.284", fillcolor="#eca571"] ;
0 -> 638 [labeldistance=2.5, labelangle=-45, headlabel="False"] ;
639 [label="RM <= 7.121\nsquared_error = 9.146\nsamples = 31\nvalue = 33.316", fillcolor="#efb082"] ;
638 -> 639 ;
640 [label="TAX <= 258.0\nsquared_error = 11.875\nsamples = 11\nvalue = 31.164", fillcolor="#f0b68c"] ;
639 -> 640 ;
641 [label="CRIM <= 0.046\nsquared_error = 2.712\nsamples = 4\nvalue = 34.625", fillcolor="#eeac7d"] ;
640 -> 641 ;
642 [label="LSTAT <= 2.46\nsquared_error = 0.669\nsamples = 3\nvalue = 33.767", fillcolor="#eeae80"] ;
641 -> 642 ;
643 [label="squared_error = 0.0\nsamples = 1\nvalue = 34.9", fillcolor="#eeab7b"] ;
642 -> 643 ;
644 [label="DIS <= 7.643\nsquared_error = 0.04\nsamples = 2\nvalue = 33.2", fillcolor="#efb083"] ;
642 -> 644 ;
645 [label="squared_error = 0.0\nsamples = 1\nvalue = 33.4", fillcolor="#efaf82"] ;
644 -> 645 ;
646 [label="squared_error = -0.0\nsamples = 1\nvalue = 33.0", fillcolor="#efb184"] ;
644 -> 646 ;
647 [label="squared_error = 0.0\nsamples = 1\nvalue = 37.2", fillcolor="#eca571"] ;
641 -> 647 ;
648 [label="B <= 396.48\nsquared_error = 6.353\nsamples = 7\nvalue = 29.186", fillcolor="#f1bb95"] ;
640 -> 648 ;
649 [label="ZN <= 85.0\nsquared_error = 1.345\nsamples = 6\nvalue = 30.117", fillcolor="#f0b990"] ;
648 -> 649 ;
650 [label="LSTAT <= 7.155\nsquared_error = 0.572\nsamples = 5\nvalue = 29.7", fillcolor="#f1ba92"] ;
649 -> 650 ;
651 [label="NOX <= 0.444\nsquared_error = 0.022\nsamples = 2\nvalue = 28.85", fillcolor="#f1bc96"] ;
650 -> 651 ;
652 [label="squared_error = 0.0\nsamples = 1\nvalue = 29.0", fillcolor="#f1bc95"] ;
651 -> 652 ;
653 [label="squared_error = -0.0\nsamples = 1\nvalue = 28.7", fillcolor="#f1bd97"] ;
651 -> 653 ;
654 [label="CRIM <= 2.716\nsquared_error = 0.136\nsamples = 3\nvalue = 30.267", fillcolor="#f0b890"] ;
650 -> 654 ;
655 [label="RAD <= 3.5\nsquared_error = 0.04\nsamples = 2\nvalue = 30.5", fillcolor="#f0b88f"] ;
654 -> 655 ;
656 [label="squared_error = 0.0\nsamples = 1\nvalue = 30.3", fillcolor="#f0b890"] ;
655 -> 656 ;
657 [label="squared_error = -0.0\nsamples = 1\nvalue = 30.7", fillcolor="#f0b78e"] ;
655 -> 657 ;
658 [label="squared_error = 0.0\nsamples = 1\nvalue = 29.8", fillcolor="#f1ba92"] ;
654 -> 658 ;
659 [label="squared_error = 0.0\nsamples = 1\nvalue = 32.2", fillcolor="#efb387"] ;
649 -> 659 ;
660 [label="squared_error = 0.0\nsamples = 1\nvalue = 23.6", fillcolor="#f4cbad"] ;
648 -> 660 ;
661 [label="RM <= 7.258\nsquared_error = 3.695\nsamples = 20\nvalue = 34.5", fillcolor="#eeac7d"] ;
639 -> 661 ;
662 [label="AGE <= 17.9\nsquared_error = 2.008\nsamples = 11\nvalue = 35.645", fillcolor="#eda978"] ;
661 -> 662 ;
663 [label="squared_error = 0.0\nsamples = 1\nvalue = 32.9", fillcolor="#efb184"] ;
662 -> 663 ;
664 [label="RM <= 7.181\nsquared_error = 1.38\nsamples = 10\nvalue = 35.92", fillcolor="#eda877"] ;
662 -> 664 ;
665 [label="DIS <= 5.589\nsquared_error = 0.472\nsamples = 4\nvalue = 36.95", fillcolor="#eda672"] ;
664 -> 665 ;
666 [label="INDUS <= 3.705\nsquared_error = 0.09\nsamples = 2\nvalue = 37.6", fillcolor="#eca470"] ;
665 -> 666 ;
667 [label="squared_error = 0.0\nsamples = 1\nvalue = 37.9", fillcolor="#eca36e"] ;
666 -> 667 ;
668 [label="squared_error = 0.0\nsamples = 1\nvalue = 37.3", fillcolor="#eca571"] ;
666 -> 668 ;
669 [label="CRIM <= 0.078\nsquared_error = 0.01\nsamples = 2\nvalue = 36.3", fillcolor="#eda775"] ;
665 -> 669 ;
670 [label="squared_error = 0.0\nsamples = 1\nvalue = 36.2", fillcolor="#eda876"] ;
669 -> 670 ;
671 [label="squared_error = 0.0\nsamples = 1\nvalue = 36.4", fillcolor="#eda775"] ;
669 -> 671 ;
672 [label="RM <= 7.204\nsquared_error = 0.806\nsamples = 6\nvalue = 35.233", fillcolor="#eeaa7a"] ;
664 -> 672 ;
673 [label="LSTAT <= 7.49\nsquared_error = 0.229\nsamples = 3\nvalue = 34.467", fillcolor="#eeac7d"] ;
672 -> 673 ;
674 [label="B <= 394.865\nsquared_error = 0.01\nsamples = 2\nvalue = 34.8", fillcolor="#eeac7c"] ;
673 -> 674 ;
675 [label="squared_error = 0.0\nsamples = 1\nvalue = 34.7", fillcolor="#eeac7c"] ;
674 -> 675 ;
676 [label="squared_error = 0.0\nsamples = 1\nvalue = 34.9", fillcolor="#eeab7b"] ;
674 -> 676 ;
677 [label="squared_error = -0.0\nsamples = 1\nvalue = 33.8", fillcolor="#eeae80"] ;
673 -> 677 ;
678 [label="DIS <= 6.359\nsquared_error = 0.207\nsamples = 3\nvalue = 36.0", fillcolor="#eda877"] ;
672 -> 678 ;
679 [label="PTRATIO <= 15.7\nsquared_error = 0.04\nsamples = 2\nvalue = 36.3", fillcolor="#eda775"] ;
678 -> 679 ;
680 [label="squared_error = 0.0\nsamples = 1\nvalue = 36.5", fillcolor="#eda774"] ;
679 -> 680 ;
681 [label="squared_error = 0.0\nsamples = 1\nvalue = 36.1", fillcolor="#eda876"] ;
679 -> 681 ;
682 [label="squared_error = -0.0\nsamples = 1\nvalue = 35.4", fillcolor="#edaa79"] ;
678 -> 682 ;
683 [label="AGE <= 97.25\nsquared_error = 2.193\nsamples = 9\nvalue = 33.1", fillcolor="#efb083"] ;
661 -> 683 ;
684 [label="CRIM <= 0.284\nsquared_error = 1.285\nsamples = 8\nvalue = 32.737", fillcolor="#efb185"] ;
683 -> 684 ;
685 [label="CRIM <= 0.039\nsquared_error = 0.286\nsamples = 5\nvalue = 33.54", fillcolor="#efaf81"] ;
684 -> 685 ;
686 [label="squared_error = 0.0\nsamples = 1\nvalue = 34.6", fillcolor="#eeac7d"] ;
685 -> 686 ;
687 [label="INDUS <= 2.535\nsquared_error = 0.007\nsamples = 4\nvalue = 33.275", fillcolor="#efb083"] ;
685 -> 687 ;
688 [label="PTRATIO <= 15.5\nsquared_error = 0.003\nsamples = 2\nvalue = 33.35", fillcolor="#efb082"] ;
687 -> 688 ;
689 [label="squared_error = 0.0\nsamples = 1\nvalue = 33.3", fillcolor="#efb082"] ;
688 -> 689 ;
690 [label="squared_error = 0.0\nsamples = 1\nvalue = 33.4", fillcolor="#efaf82"] ;
688 -> 690 ;
691 [label="squared_error = 0.0\nsamples = 2\nvalue = 33.2", fillcolor="#efb083"] ;
687 -> 691 ;
692 [label="LSTAT <= 8.25\nsquared_error = 0.087\nsamples = 3\nvalue = 31.4", fillcolor="#f0b58b"] ;
684 -> 692 ;
693 [label="B <= 383.105\nsquared_error = 0.01\nsamples = 2\nvalue = 31.6", fillcolor="#f0b58a"] ;
692 -> 693 ;
694 [label="squared_error = 0.0\nsamples = 1\nvalue = 31.7", fillcolor="#f0b48a"] ;
693 -> 694 ;
695 [label="squared_error = -0.0\nsamples = 1\nvalue = 31.5", fillcolor="#f0b58a"] ;
693 -> 695 ;
696 [label="squared_error = 0.0\nsamples = 1\nvalue = 31.0", fillcolor="#f0b68d"] ;
692 -> 696 ;
697 [label="squared_error = -0.0\nsamples = 1\nvalue = 36.0", fillcolor="#eda877"] ;
683 -> 697 ;
698 [label="PTRATIO <= 18.3\nsquared_error = 48.195\nsamples = 18\nvalue = 44.117", fillcolor="#e89153"] ;
638 -> 698 ;
699 [label="B <= 395.54\nsquared_error = 14.615\nsamples = 16\nvalue = 46.062", fillcolor="#e78c4a"] ;
698 -> 699 ;
700 [label="RM <= 7.628\nsquared_error = 9.082\nsamples = 14\nvalue = 47.036", fillcolor="#e78946"] ;
699 -> 700 ;
701 [label="RM <= 7.54\nsquared_error = 0.509\nsamples = 3\nvalue = 43.267", fillcolor="#e99457"] ;
700 -> 701 ;
702 [label="RAD <= 4.0\nsquared_error = 0.062\nsamples = 2\nvalue = 43.75", fillcolor="#e99254"] ;
701 -> 702 ;
703 [label="squared_error = 0.0\nsamples = 1\nvalue = 44.0", fillcolor="#e89253"] ;
702 -> 703 ;
704 [label="squared_error = 0.0\nsamples = 1\nvalue = 43.5", fillcolor="#e99356"] ;
702 -> 704 ;
705 [label="squared_error = 0.0\nsamples = 1\nvalue = 42.3", fillcolor="#e9975b"] ;
701 -> 705 ;
706 [label="PTRATIO <= 14.8\nsquared_error = 6.49\nsamples = 11\nvalue = 48.064", fillcolor="#e68642"] ;
700 -> 706 ;
707 [label="ZN <= 92.5\nsquared_error = 0.378\nsamples = 7\nvalue = 49.614", fillcolor="#e5823b"] ;
706 -> 707 ;
708 [label="RM <= 8.386\nsquared_error = 0.2\nsamples = 6\nvalue = 49.8", fillcolor="#e5823a"] ;
707 -> 708 ;
709 [label="squared_error = 0.0\nsamples = 5\nvalue = 50.0", fillcolor="#e58139"] ;
708 -> 709 ;
710 [label="squared_error = -0.0\nsamples = 1\nvalue = 48.8", fillcolor="#e6843e"] ;
708 -> 710 ;
711 [label="squared_error = 0.0\nsamples = 1\nvalue = 48.5", fillcolor="#e68540"] ;
707 -> 711 ;
712 [label="CRIM <= 0.453\nsquared_error = 5.613\nsamples = 4\nvalue = 45.35", fillcolor="#e88e4d"] ;
706 -> 712 ;
713 [label="CRIM <= 0.196\nsquared_error = 1.562\nsamples = 3\nvalue = 46.567", fillcolor="#e78b48"] ;
712 -> 713 ;
714 [label="DIS <= 4.953\nsquared_error = 0.09\nsamples = 2\nvalue = 45.7", fillcolor="#e78d4c"] ;
713 -> 714 ;
715 [label="squared_error = 0.0\nsamples = 1\nvalue = 45.4", fillcolor="#e88e4d"] ;
714 -> 715 ;
716 [label="squared_error = -0.0\nsamples = 1\nvalue = 46.0", fillcolor="#e78c4b"] ;
714 -> 716 ;
717 [label="squared_error = -0.0\nsamples = 1\nvalue = 48.3", fillcolor="#e68640"] ;
713 -> 717 ;
718 [label="squared_error = -0.0\nsamples = 1\nvalue = 41.7", fillcolor="#ea985e"] ;
712 -> 718 ;
719 [label="B <= 396.23\nsquared_error = 0.302\nsamples = 2\nvalue = 39.25", fillcolor="#eb9f68"] ;
699 -> 719 ;
720 [label="squared_error = 0.0\nsamples = 1\nvalue = 39.8", fillcolor="#eb9e66"] ;
719 -> 720 ;
721 [label="squared_error = 0.0\nsamples = 1\nvalue = 38.7", fillcolor="#eca16b"] ;
719 -> 721 ;
722 [label="TAX <= 444.5\nsquared_error = 44.223\nsamples = 2\nvalue = 28.55", fillcolor="#f1bd97"] ;
698 -> 722 ;
723 [label="squared_error = 0.0\nsamples = 1\nvalue = 35.2", fillcolor="#eeaa7a"] ;
722 -> 723 ;
724 [label="squared_error = -0.0\nsamples = 1\nvalue = 21.9", fillcolor="#f5d0b5"] ;
722 -> 724 ;
}